{"learner":{"attributes":{"scikit_learn":"{\"_estimator_type\": \"classifier\"}"},"feature_names":["CHL","NDVI_daily","mlotst","precip_mm_day","so","thetao","uo","vo","wind_speed_ms","wind_u_ms","wind_v_ms"],"feature_types":["float","float","float","float","float","float","float","float","float","float","float"],"gradient_booster":{"model":{"cats":{"enc":[],"feature_segments":[],"sorted_idx":[]},"gbtree_model_param":{"num_parallel_tree":"1","num_trees":"50"},"iteration_indptr":[0,1,2,3,4,5,6,7,8,9,10,11,12,13,14,15,16,17,18,19,20,21,22,23,24,25,26,27,28,29,30,31,32,33,34,35,36,37,38,39,40,41,42,43,44,45,46,47,48,49,50],"tree_info":[0,0,0,0,0,0,0,0,0,0,0,0,0,0,0,0,0,0,0,0,0,0,0,0,0,0,0,0,0,0,0,0,0,0,0,0,0,0,0,0,0,0,0,0,0,0,0,0,0,0],"trees":[{"base_weights":[5.5993503E-1,4.2758915E-3,9.803019E-1,5.493285E-1,-5.441762E-1,-5.978516E-1,9.923086E-1,6.8125404E-2,1.9704424E-2,-2.0015855E-1,-1.4657955E-2,1.0894716E-1,9.346681E-2],"categories":[],"categories_nodes":[],"categories_segments":[],"categories_sizes":[],"default_left":[0,0,0,0,0,0,0,0,0,0,0,0,0],"id":0,"left_children":[1,3,5,7,9,-1,11,-1,-1,-1,-1,-1,-1],"loss_changes":[5.123062E3,2.824421E3,1.049209E3,2.2010376E2,2.728651E3,0E0,6.8796875E1,0E0,0E0,0E0,0E0,0E0,0E0],"parents":[2147483647,0,0,1,1,2,2,3,3,4,4,6,6],"right_children":[2,4,6,8,10,-1,12,-1,-1,-1,-1,-1,-1],"split_conditions":[3.4422767E-1,3.2651752E1,1.0020245E1,3.2194992E1,9.3081455E0,-5.978516E-1,3.175756E1,6.8125404E-2,1.9704424E-2,-2.0015855E-1,-1.4657955E-2,1.0894716E-1,9.346681E-2],"split_indices":[1,4,2,4,2,0,4,0,0,0,0,0,0],"split_type":[0,0,0,0,0,0,0,0,0,0,0,0,0],"sum_hessian":[2.1931746E4,9.446269E3,1.2485477E4,4.737817E3,4.708452E3,2.064934E1,1.2464827E4,3.4462944E3,1.2915223E3,1.0083314E3,3.7001204E3,4.6345703E3,7.830257E3],"tree_param":{"num_deleted":"0","num_feature":"11","num_nodes":"13","size_leaf_vector":"1"}},{"base_weights":[5.351984E-1,3.7155494E-2,9.478508E-1,6.071904E-1,-3.6517066E-1,-3.7931678E-1,9.600586E-1,-1.2704282E-1,6.344131E-2,-2.6963556E-2,-5.575029E-1,-4.6211758E-1,9.614679E-2],"categories":[],"categories_nodes":[],"categories_segments":[],"categories_sizes":[],"default_left":[0,0,0,0,0,0,0,0,0,0,0,0,0],"id":1,"left_children":[1,3,5,7,9,-1,11,-1,-1,-1,-1,-1,-1],"loss_changes":[4.423836E3,2.2373386E3,6.8496484E2,2.0712451E2,2.8450493E3,0E0,9.680371E1,0E0,0E0,0E0,0E0,0E0,0E0],"parents":[2147483647,0,0,1,1,2,2,3,3,4,4,6,6],"right_children":[2,4,6,8,10,-1,12,-1,-1,-1,-1,-1,-1],"split_conditions":[3.4639966E-1,3.2430492E1,1.032543E1,-9.922884E-2,3.0907408E1,-3.7931678E-1,2.6584642E1,-1.2704282E-1,6.344131E-2,-2.6963556E-2,-5.575029E-1,-4.6211758E-1,9.614679E-2],"split_indices":[1,4,2,1,5,0,5,0,0,0,0,0,0],"split_type":[0,0,0,0,0,0,0,0,0,0,0,0,0],"sum_hessian":[2.1524404E4,9.753589E3,1.1770815E4,4.0354546E3,5.718134E3,2.943579E1,1.174138E4,5.7019268E1,3.9784353E3,5.616199E3,1.0193456E2,2.1364675E0,1.1739243E4],"tree_param":{"num_deleted":"0","num_feature":"11","num_nodes":"13","size_leaf_vector":"1"}},{"base_weights":[5.058544E-1,-3.7593846E-3,9.308957E-1,-6.036279E-1,2.1204935E-1,-2.887492E-1,9.4139236E-1,-4.475479E-2,-4.9307084E-1,6.822016E-2,1.292097E-2,8.344596E-2,9.8590605E-2],"categories":[],"categories_nodes":[],"categories_segments":[],"categories_sizes":[],"default_left":[0,0,0,0,0,0,0,0,0,0,0,0,0],"id":2,"left_children":[1,3,5,7,9,-1,11,-1,-1,-1,-1,-1,-1],"loss_changes":[4.501405E3,1.2236902E3,4.5686816E2,1.6868302E3,2.7065756E2,0E0,5.2967773E1,0E0,0E0,0E0,0E0,0E0,0E0],"parents":[2147483647,0,0,1,1,2,2,3,3,4,4,6,6],"right_children":[2,4,6,8,10,-1,12,-1,-1,-1,-1,-1,-1],"split_conditions":[3.4764725E-1,9.3081455E0,1.0020245E1,2.4789454E-1,-9.922884E-2,-2.887492E-1,2.7919292E-1,-4.475479E-2,-4.9307084E-1,6.822016E-2,1.292097E-2,8.344596E-2,9.8590605E-2],"split_indices":[1,2,2,1,1,0,3,0,0,0,0,0,0],"split_type":[0,0,0,0,0,0,0,0,0,0,0,0,0],"sum_hessian":[2.0780432E4,9.450504E3,1.1329928E4,2.4999023E3,6.950602E3,3.0309057E1,1.1299618E4,2.4139338E3,8.596842E1,1.0401346E3,5.9104673E3,3.3270225E3,7.972596E3],"tree_param":{"num_deleted":"0","num_feature":"11","num_nodes":"13","size_leaf_vector":"1"}},{"base_weights":[4.680734E-1,-2.941554E-1,6.802738E-1,1.12781795E-2,-6.5585774E-1,8.7239075E-1,6.095789E-1,-4.806183E-1,4.631255E-3,-1.1727506E-1,-2.1028822E-2,8.471313E-2,1.0260973E-1,7.453441E-2,4.2995565E-2],"categories":[],"categories_nodes":[],"categories_segments":[],"categories_sizes":[],"default_left":[0,0,0,0,0,0,0,0,0,0,0,0,0,0,0],"id":3,"left_children":[1,3,5,7,9,11,13,-1,-1,-1,-1,-1,-1,-1,-1],"loss_changes":[3.202542E3,4.7640598E2,2.0981348E2,3.949838E2,4.5445288E2,1.5296631E1,2.7585156E2,0E0,0E0,0E0,0E0,0E0,0E0,0E0,0E0],"parents":[2147483647,0,0,1,1,2,2,3,3,4,4,5,5,6,6],"right_children":[2,4,6,8,10,12,14,-1,-1,-1,-1,-1,-1,-1,-1],"split_conditions":[1.032543E1,-9.4635975E-1,-2.2787154E-2,-5.2491836E-2,4.9946067E-1,2.0599995E1,2.2059565E0,-4.806183E-1,4.631255E-3,-1.1727506E-1,-2.1028822E-2,8.471313E-2,1.0260973E-1,7.453441E-2,4.2995565E-2],"split_indices":[2,10,7,7,9,2,8,0,0,0,0,0,0,0,0],"split_type":[0,0,0,0,0,0,0,0,0,0,0,0,0,0,0],"sum_hessian":[1.9797678E4,4.3112344E3,1.5486442E4,2.3379556E3,1.9732789E3,4.162714E3,1.1323729E4,1.5896491E1,2.322059E3,9.12769E2,1.06051E3,3.5807776E3,5.819364E2,6.447412E3,4.8763164E3],"tree_param":{"num_deleted":"0","num_feature":"11","num_nodes":"15","size_leaf_vector":"1"}},{"base_weights":[4.2406338E-1,7.2961444E-1,9.707833E-2,4.6294034E-1,8.678936E-1,7.2530836E-1,-1.5984654E-1,7.090127E-2,2.5098998E-2,-5.7250285E-1,8.707774E-2,7.408624E-2,-2.1606706E-1,-9.98263E-3,-3.033243E-1],"categories":[],"categories_nodes":[],"categories_segments":[],"categories_sizes":[],"default_left":[0,0,0,0,0,0,0,0,0,0,0,0,0,0,0],"id":4,"left_children":[1,3,5,7,9,11,13,-1,-1,-1,-1,-1,-1,-1,-1],"loss_changes":[1.8828313E3,3.588418E2,1.4697E3,1.734342E2,1.2693848E2,1.20237915E2,1.1142927E3,0E0,0E0,0E0,0E0,0E0,0E0,0E0,0E0],"parents":[2147483647,0,0,1,1,2,2,3,3,4,4,5,5,6,6],"right_children":[2,4,6,8,10,12,14,-1,-1,-1,-1,-1,-1,-1,-1],"split_conditions":[3.2673115E1,2.9687521E1,3.297983E-1,-1.3733329E-2,-2.4781029E-1,3.0789118E1,3.0950254E1,7.090127E-2,2.5098998E-2,-5.7250285E-1,8.707774E-2,7.408624E-2,-2.1606706E-1,-9.98263E-3,-3.033243E-1],"split_indices":[4,5,0,7,7,5,5,0,0,0,0,0,0,0,0],"split_type":[0,0,0,0,0,0,0,0,0,0,0,0,0,0,0],"sum_hessian":[1.8844865E4,9.741084E3,9.103782E3,3.3277668E3,6.413317E3,2.6419329E3,6.4618496E3,1.5388413E3,1.7889255E3,1.9364759E0,6.4113804E3,2.6285098E3,1.3423064E1,6.3306484E3,1.3120146E2],"tree_param":{"num_deleted":"0","num_feature":"11","num_nodes":"15","size_leaf_vector":"1"}},{"base_weights":[3.937632E-1,-7.049839E-2,8.4528357E-1,5.4558504E-1,-4.0016913E-1,-2.3950596E-1,8.586371E-1,2.4016429E-2,7.386365E-2,-8.5056484E-2,1.885166E-2,9.5027484E-2,7.403701E-2],"categories":[],"categories_nodes":[],"categories_segments":[],"categories_sizes":[],"default_left":[0,0,0,0,0,0,0,0,0,0,0,0,0],"id":5,"left_children":[1,3,5,7,9,-1,11,-1,-1,-1,-1,-1,-1],"loss_changes":[3.8019604E3,1.8166147E3,3.9990918E2,1.8365552E2,1.544962E3,0E0,9.854492E1,0E0,0E0,0E0,0E0,0E0,0E0],"parents":[2147483647,0,0,1,1,2,2,3,3,4,4,6,6],"right_children":[2,4,6,8,10,-1,12,-1,-1,-1,-1,-1,-1],"split_conditions":[3.4639966E-1,3.227892E1,1.032543E1,2.9687521E1,1.1024812E1,-2.3950596E-1,3.277001E1,2.4016429E-2,7.386365E-2,-8.5056484E-2,1.885166E-2,9.5027484E-2,7.403701E-2],"split_indices":[1,4,2,5,2,0,4,0,0,0,0,0,0],"split_type":[0,0,0,0,0,0,0,0,0,0,0,0,0],"sum_hessian":[1.8135799E4,8.942153E3,9.193645E3,3.1168254E3,5.825328E3,3.699975E1,9.156645E3,1.2079728E3,1.9088525E3,3.300055E3,2.5252732E3,5.155183E3,4.0014617E3],"tree_param":{"num_deleted":"0","num_feature":"11","num_nodes":"13","size_leaf_vector":"1"}},{"base_weights":[3.8281432E-1,6.7269725E-1,1.0479833E-1,4.6263918E-1,8.297519E-1,1.5078516E-1,-2.3307571E0,5.5287402E-2,4.37641E-5,-5.372675E-1,8.34026E-2,4.8760008E-2,2.9926363E-3,-2.435001E-1,9.335118E-2],"categories":[],"categories_nodes":[],"categories_segments":[],"categories_sizes":[],"default_left":[0,0,0,0,0,0,0,0,0,0,0,0,0,0,0],"id":6,"left_children":[1,3,5,7,9,11,13,-1,-1,-1,-1,-1,-1,-1,-1],"loss_changes":[1.4255554E3,2.8530444E2,1.0118222E3,1.5460498E2,1.3580322E2,3.6082462E2,5.92406E1,0E0,0E0,0E0,0E0,0E0,0E0,0E0,0E0],"parents":[2147483647,0,0,1,1,2,2,3,3,4,4,5,5,6,6],"right_children":[2,4,6,8,10,12,14,-1,-1,-1,-1,-1,-1,-1,-1],"split_conditions":[3.2673115E1,2.9884548E1,3.0929564E1,2.0764884E-1,-1.5320292E-1,-3.3538518E0,1.1169775E-1,5.5287402E-2,4.37641E-5,-5.372675E-1,8.34026E-2,4.8760008E-2,2.9926363E-3,-2.435001E-1,9.335118E-2],"split_indices":[4,5,5,9,6,9,6,0,0,0,0,0,0,0,0],"split_type":[0,0,0,0,0,0,0,0,0,0,0,0,0,0,0],"sum_hessian":[1.7688404E4,8.658696E3,9.029708E3,3.7059675E3,4.9527285E3,8.863294E3,1.664138E2,3.1004717E3,6.0549603E2,2.5456436E0,4.9501826E3,2.3397463E3,6.523548E3,1.6151006E2,4.903748E0],"tree_param":{"num_deleted":"0","num_feature":"11","num_nodes":"15","size_leaf_vector":"1"}},{"base_weights":[3.5514143E-1,-3.1478885E-1,5.5417234E-1,-1.0832487E0,-1.5518942E-1,4.6088004E-1,7.269823E-1,-5.077886E-1,-9.2165716E-2,3.203071E-2,-5.9494086E-2,3.654406E-2,8.103504E-2,-1.4277641E-1,7.329773E-2],"categories":[],"categories_nodes":[],"categories_segments":[],"categories_sizes":[],"default_left":[0,0,0,0,0,0,0,0,0,0,0,0,0,0,0],"id":7,"left_children":[1,3,5,7,9,11,13,-1,-1,-1,-1,-1,-1,-1,-1],"loss_changes":[2.307187E3,4.8595062E2,2.1472266E2,4.3520044E2,6.8669653E2,2.887295E2,6.1436768E1,0E0,0E0,0E0,0E0,0E0,0E0,0E0,0E0],"parents":[2147483647,0,0,1,1,2,2,3,3,4,4,5,5,6,6],"right_children":[2,4,6,8,10,12,14,-1,-1,-1,-1,-1,-1,-1,-1],"split_conditions":[9.35901E0,2.836253E1,3.006235E1,-1.3265379E-1,-8.5187644E-1,1.5411848E1,1.032543E1,-5.077886E-1,-9.2165716E-2,3.203071E-2,-5.9494086E-2,3.654406E-2,8.103504E-2,-1.4277641E-1,7.329773E-2],"split_indices":[2,5,5,6,10,2,2,0,0,0,0,0,0,0,0],"split_type":[0,0,0,0,0,0,0,0,0,0,0,0,0,0,0],"sum_hessian":[1.7301143E4,3.9626003E3,1.3338542E4,6.804577E2,3.2821426E3,8.66459E3,4.6739517E3,2.527289E1,6.551848E2,1.5771096E3,1.705033E3,6.8075195E3,1.8570706E3,1.2310019E1,4.6616416E3],"tree_param":{"num_deleted":"0","num_feature":"11","num_nodes":"15","size_leaf_vector":"1"}},{"base_weights":[3.4510097E-1,-2.2821042E-1,5.295671E-1,-1.79429E-1,-2.2291592E-1,7.710707E-1,4.4405514E-1,-6.752073E-2,-2.057705E-3,-4.1649508E-1,7.744762E-2,2.1574037E-2,6.0675796E-2],"categories":[],"categories_nodes":[],"categories_segments":[],"categories_sizes":[],"default_left":[0,0,0,0,0,0,0,0,0,0,0,0,0],"id":8,"left_children":[1,3,5,7,-1,9,11,-1,-1,-1,-1,-1,-1],"loss_changes":[1.7920133E3,4.022649E2,2.643943E2,3.1722748E2,0E0,5.9551758E1,3.516371E2,0E0,0E0,0E0,0E0,0E0,0E0],"parents":[2147483647,0,0,1,1,2,2,3,3,5,5,6,6],"right_children":[2,4,6,8,-1,10,12,-1,-1,-1,-1,-1,-1],"split_conditions":[9.35901E0,3.1031557E1,-2.1973327E-2,2.8730583E1,-2.2291592E-1,1.0528886E1,2.9554949E1,-6.752073E-2,-2.057705E-3,-4.1649508E-1,7.744762E-2,2.1574037E-2,6.0675796E-2],"split_indices":[2,5,7,5,0,2,5,0,0,0,0,0,0],"split_type":[0,0,0,0,0,0,0,0,0,0,0,0,0],"sum_hessian":[1.694256E4,4.1242783E3,1.2818283E4,4.0271885E3,9.708976E1,3.349783E3,9.4685E3,9.764448E2,3.0507437E3,1.4670315E0,3.348316E3,3.9408198E3,5.52768E3],"tree_param":{"num_deleted":"0","num_feature":"11","num_nodes":"13","size_leaf_vector":"1"}},{"base_weights":[3.0727342E-1,-2.6053104E-1,4.9675202E-1,-9.575612E-2,-3.7466486E0,7.5165206E-1,2.664801E-1,5.884527E-2,-3.165955E-2,-2.7089545E-1,-3.906938E-1,8.3112136E-2,5.8904268E-2,-3.7760714E-3,6.835192E-2],"categories":[],"categories_nodes":[],"categories_segments":[],"categories_sizes":[],"default_left":[0,0,0,0,0,0,0,0,0,0,0,0,0,0,0],"id":9,"left_children":[1,3,5,7,9,11,13,-1,-1,-1,-1,-1,-1,-1,-1],"loss_changes":[1.7601918E3,2.3512969E3,7.197998E2,5.9101654E2,2.014502E1,7.473706E1,8.179153E2,0E0,0E0,0E0,0E0,0E0,0E0,0E0,0E0],"parents":[2147483647,0,0,1,1,2,2,3,3,4,4,5,5,6,6],"right_children":[2,4,6,8,10,12,14,-1,-1,-1,-1,-1,-1,-1,-1],"split_conditions":[9.35901E0,3.391827E1,3.2673115E1,3.1474503E1,7.934813E0,3.193813E1,1.3275552E1,5.884527E-2,-3.165955E-2,-2.7089545E-1,-3.906938E-1,8.3112136E-2,5.8904268E-2,-3.7760714E-3,6.835192E-2],"split_indices":[2,4,4,4,2,4,2,0,0,0,0,0,0,0,0],"split_type":[0,0,0,0,0,0,0,0,0,0,0,0,0,0,0],"sum_hessian":[1.6358463E4,4.0929316E3,1.2265531E4,3.9091875E3,1.8374428E2,5.8203823E3,6.445149E3,9.5346844E2,2.955719E3,2.6979939E1,1.5676434E2,3.9069128E3,1.9134694E3,3.727067E3,2.718082E3],"tree_param":{"num_deleted":"0","num_feature":"11","num_nodes":"15","size_leaf_vector":"1"}},{"base_weights":[2.831038E-1,-8.948061E-2,7.3168355E-1,-2.359286E-2,-8.5043794E-1,-2.040828E-1,7.470488E-1,1.3287413E-2,-3.0953044E-2,-6.4556636E-2,-2.2725163E-1,5.7942756E-2,8.2475774E-2],"categories":[],"categories_nodes":[],"categories_segments":[],"categories_sizes":[],"default_left":[0,0,0,0,0,0,0,0,0,0,0,0,0],"id":10,"left_children":[1,3,5,7,9,-1,11,-1,-1,-1,-1,-1,-1],"loss_changes":[2.6375205E3,4.3223517E2,3.0654932E2,3.5506842E2,1.9867712E2,0E0,9.22832E1,0E0,0E0,0E0,0E0,0E0,0E0],"parents":[2147483647,0,0,1,1,2,2,3,3,4,4,6,6],"right_children":[2,4,6,8,10,-1,12,-1,-1,-1,-1,-1,-1],"split_conditions":[3.4764725E-1,7.080294E-2,1.032543E1,1.6702425E-1,1.0757775E1,-2.040828E-1,4.1294858E-1,1.3287413E-2,-3.0953044E-2,-6.4556636E-2,-2.2725163E-1,5.7942756E-2,8.2475774E-2],"split_indices":[1,6,2,1,2,0,1,0,0,0,0,0,0],"split_type":[0,0,0,0,0,0,0,0,0,0,0,0,0],"sum_hessian":[1.5779498E4,8.62035E3,7.159148E3,7.93438E3,6.8597003E2,3.8730793E1,7.120417E3,5.128542E3,2.8058376E3,6.00861E2,8.510902E1,2.2580876E3,4.8623296E3],"tree_param":{"num_deleted":"0","num_feature":"11","num_nodes":"13","size_leaf_vector":"1"}},{"base_weights":[2.583565E-1,-1.9602002E-1,4.3857867E-1,7.0438035E-2,-1.1283224E0,6.8520004E-1,2.2305204E-1,6.545016E-2,-1.31012425E-2,-3.1416473E-1,-6.463946E-2,3.613467E-2,7.7775225E-2,-1.4135597E-3,6.2426347E-2],"categories":[],"categories_nodes":[],"categories_segments":[],"categories_sizes":[],"default_left":[0,0,0,0,0,0,0,0,0,0,0,0,0,0,0],"id":11,"left_children":[1,3,5,7,9,11,13,-1,-1,-1,-1,-1,-1,-1,-1],"loss_changes":[1.2581116E3,1.0840785E3,5.8453784E2,3.994935E2,9.3912573E2,1.5346655E2,5.5876086E2,0E0,0E0,0E0,0E0,0E0,0E0,0E0,0E0],"parents":[2147483647,0,0,1,1,2,2,3,3,4,4,5,5,6,6],"right_children":[2,4,6,8,10,12,14,-1,-1,-1,-1,-1,-1,-1,-1],"split_conditions":[1.0528886E1,3.3362835E1,3.2723473E1,3.1334116E1,-6.103702E-3,2.9495987E1,1.3580737E1,6.545016E-2,-1.31012425E-2,-3.1416473E-1,-6.463946E-2,3.613467E-2,7.7775225E-2,-1.4135597E-3,6.2426347E-2],"split_indices":[2,4,4,4,7,5,2,0,0,0,0,0,0,0,0],"split_type":[0,0,0,0,0,0,0,0,0,0,0,0,0,0,0],"sum_hessian":[1.5361627E4,4.362583E3,1.0999044E4,3.393596E3,9.6898724E2,5.1284805E3,5.8705635E3,8.697342E2,2.5238618E3,1.8608226E2,7.82905E2,1.140969E3,3.9875115E3,3.6900496E3,2.180514E3],"tree_param":{"num_deleted":"0","num_feature":"11","num_nodes":"15","size_leaf_vector":"1"}},{"base_weights":[2.3025288E-1,-1.23229526E-1,6.91315E-1,2.706327E-2,-3.2785836E-1,-1.8692681E-1,7.072364E-1,-5.173367E-2,1.4952013E-2,-8.6006016E-2,-1.956178E-3,7.134746E-2,-1.7979999E-1],"categories":[],"categories_nodes":[],"categories_segments":[],"categories_sizes":[],"default_left":[0,0,0,0,0,0,0,0,0,0,0,0,0],"id":12,"left_children":[1,3,5,7,9,-1,11,-1,-1,-1,-1,-1,-1],"loss_changes":[2.4341155E3,2.6002002E2,2.6555298E2,3.2509338E2,5.8740076E2,0E0,1.0195776E2,0E0,0E0,0E0,0E0,0E0,0E0],"parents":[2147483647,0,0,1,1,2,2,3,3,4,4,6,6],"right_children":[2,4,6,8,10,-1,12,-1,-1,-1,-1,-1,-1],"split_conditions":[3.4764725E-1,1.3827269E-1,1.032543E1,5.89551E-1,1.032543E1,-1.8692681E-1,5.793268E-1,-5.173367E-2,1.4952013E-2,-8.6006016E-2,-1.956178E-3,7.134746E-2,-1.7979999E-1],"split_indices":[1,1,2,0,2,0,1,0,0,0,0,0,0],"split_type":[0,0,0,0,0,0,0,0,0,0,0,0,0],"sum_hessian":[1.4933777E4,8.453481E3,6.480296E3,4.874325E3,3.5791558E3,3.9325554E1,6.4409707E3,8.944944E2,3.9798308E3,1.3121854E3,2.2669702E3,6.4256855E3,1.5284946E1],"tree_param":{"num_deleted":"0","num_feature":"11","num_nodes":"13","size_leaf_vector":"1"}},{"base_weights":[2.4045257E-1,-3.89403E-2,7.3113614E-1,5.455853E-3,-7.9134905E-1,5.447803E-1,8.145131E-1,-1.455092E-2,2.0209419E-2,-1.667916E-1,-1.0745266E-2,1.1436596E-2,6.840146E-2,8.233108E-2,-9.807524E-2],"categories":[],"categories_nodes":[],"categories_segments":[],"categories_sizes":[],"default_left":[0,0,0,0,0,0,0,0,0,0,0,0,0,0,0],"id":13,"left_children":[1,3,5,7,9,11,13,-1,-1,-1,-1,-1,-1,-1,-1],"loss_changes":[2.0385277E3,3.1652652E2,8.338037E1,2.6567316E2,3.1632486E2,1.0003931E2,5.9644775E1,0E0,0E0,0E0,0E0,0E0,0E0,0E0,0E0],"parents":[2147483647,0,0,1,1,2,2,3,3,4,4,5,5,6,6],"right_children":[2,4,6,8,10,12,14,-1,-1,-1,-1,-1,-1,-1,-1],"split_conditions":[3.7325254E-1,8.4231086E-2,3.0685514E-1,2.9785303E1,3.418073E-2,4.3986693E-1,5.793268E-1,-1.455092E-2,2.0209419E-2,-1.667916E-1,-1.0745266E-2,1.1436596E-2,6.840146E-2,8.233108E-2,-9.807524E-2],"split_indices":[1,6,3,5,7,1,1,0,0,0,0,0,0,0,0],"split_type":[0,0,0,0,0,0,0,0,0,0,0,0,0,0,0],"sum_hessian":[1.4868411E4,9.4745625E3,5.3938496E3,8.947599E3,5.2696356E2,1.669618E3,3.7242312E3,5.0617803E3,3.885818E3,2.3031906E2,2.966445E2,4.085355E2,1.2610825E3,3.7066084E3,1.7622953E1],"tree_param":{"num_deleted":"0","num_feature":"11","num_nodes":"15","size_leaf_vector":"1"}},{"base_weights":[2.0805353E-1,-8.156151E-2,6.340267E-1,3.1263962E-1,-3.6962098E-1,-1.7697273E-1,6.4982027E-1,-1.1677133E-1,3.4468275E-2,-2.935857E-2,-5.2966285E-1,4.972158E-2,7.803638E-2],"categories":[],"categories_nodes":[],"categories_segments":[],"categories_sizes":[],"default_left":[0,0,0,0,0,0,0,0,0,0,0,0,0],"id":14,"left_children":[1,3,5,7,9,-1,11,-1,-1,-1,-1,-1,-1],"loss_changes":[1.7887722E3,9.8028864E2,2.2392993E2,1.7330423E2,1.8670118E3,0E0,1.1576709E2,0E0,0E0,0E0,0E0,0E0,0E0],"parents":[2147483647,0,0,1,1,2,2,3,3,4,4,6,6],"right_children":[2,4,6,8,10,-1,12,-1,-1,-1,-1,-1,-1],"split_conditions":[3.4422767E-1,3.2651752E1,1.032543E1,-1.18567996E-1,3.1844705E-1,-1.7697273E-1,4.3986693E-1,-1.1677133E-1,3.4468275E-2,-2.935857E-2,-5.2966285E-1,4.972158E-2,7.803638E-2],"split_indices":[1,4,2,1,1,0,1,0,0,0,0,0,0],"split_type":[0,0,0,0,0,0,0,0,0,0,0,0,0],"sum_hessian":[1.4498035E4,8.630827E3,5.867208E3,3.6440137E3,4.986814E3,3.7573208E1,5.829635E3,7.6454796E1,3.5675588E3,4.912069E3,7.474517E1,2.6899321E3,3.1397026E3],"tree_param":{"num_deleted":"0","num_feature":"11","num_nodes":"13","size_leaf_vector":"1"}},{"base_weights":[1.8037665E-1,-1.02432184E-1,6.175727E-1,6.2086143E-2,-2.847859E-1,-1.6135512E-1,6.314676E-1,-4.044623E-1,1.0132867E-2,-6.618237E-2,-1.4956869E-2,4.7991306E-2,7.544729E-2],"categories":[],"categories_nodes":[],"categories_segments":[],"categories_sizes":[],"default_left":[0,0,0,0,0,0,0,0,0,0,0,0,0],"id":15,"left_children":[1,3,5,7,9,-1,11,-1,-1,-1,-1,-1,-1],"loss_changes":[1.7503104E3,2.5791284E2,1.7339429E2,7.288424E2,2.0777252E2,0E0,1.0266528E2,0E0,0E0,0E0,0E0,0E0,0E0],"parents":[2147483647,0,0,1,1,2,2,3,3,4,4,6,6],"right_children":[2,4,6,8,10,-1,12,-1,-1,-1,-1,-1,-1],"split_conditions":[3.4764725E-1,-8.315785E-1,1.032543E1,-1.8960999E-1,3.0685514E-1,-1.6135512E-1,4.3986693E-1,-4.044623E-1,1.0132867E-2,-6.618237E-2,-1.4956869E-2,4.7991306E-2,7.544729E-2],"split_indices":[1,10,2,1,3,0,1,0,0,0,0,0,0],"split_type":[0,0,0,0,0,0,0,0,0,0,0,0,0],"sum_hessian":[1.415466E4,8.595354E3,5.5593066E3,4.5190005E3,4.0763528E3,3.369496E1,5.5256113E3,4.1807438E1,4.477193E3,1.0749852E3,3.0013677E3,2.477721E3,3.0478906E3],"tree_param":{"num_deleted":"0","num_feature":"11","num_nodes":"13","size_leaf_vector":"1"}},{"base_weights":[1.794373E-1,-2.6884502E-2,6.3318837E-1,3.6724508E-1,-3.3827442E-1,4.0086588E-1,7.350199E-1,1.024014E-2,5.147729E-2,-1.980767E-2,-1.7850912E-1,9.753538E-4,5.5793356E-2,8.038413E-2,4.8590425E-2],"categories":[],"categories_nodes":[],"categories_segments":[],"categories_sizes":[],"default_left":[0,0,0,0,0,0,0,0,0,0,0,0,0,0,0],"id":16,"left_children":[1,3,5,7,9,11,13,-1,-1,-1,-1,-1,-1,-1,-1],"loss_changes":[1.3044463E3,1.1757539E3,1.0274133E2,1.6515686E2,1.0852062E3,8.166379E1,5.1502686E1,0E0,0E0,0E0,0E0,0E0,0E0,0E0,0E0],"parents":[2147483647,0,0,1,1,2,2,3,3,4,4,5,5,6,6],"right_children":[2,4,6,8,10,12,14,-1,-1,-1,-1,-1,-1,-1,-1],"split_conditions":[3.7325254E-1,3.2640053E1,3.412229E-1,2.953151E1,2.961864E-1,4.3986693E-1,3.3759575E1,1.024014E-2,5.147729E-2,-1.980767E-2,-1.7850912E-1,9.753538E-4,5.5793356E-2,8.038413E-2,4.8590425E-2],"split_indices":[1,4,3,5,1,1,4,0,0,0,0,0,0,0,0],"split_type":[0,0,0,0,0,0,0,0,0,0,0,0,0,0,0],"sum_hessian":[1.3932421E4,9.578151E3,4.3542695E3,4.2273584E3,5.350793E3,1.3284436E3,3.025826E3,1.5129633E3,2.7143953E3,4.879137E3,4.7165543E2,3.809376E2,9.4750604E2,2.3691045E3,6.567214E2],"tree_param":{"num_deleted":"0","num_feature":"11","num_nodes":"15","size_leaf_vector":"1"}},{"base_weights":[1.82277E-1,-2.511582E-3,6.080977E-1,3.1003752E-1,-2.58286E-1,8.226941E-1,5.14444E-1,5.702526E-2,1.871804E-2,-1.6427314E-2,-2.3847604E-1,8.313428E-2,-4.831717E-1,1.1259253E-2,6.52657E-2],"categories":[],"categories_nodes":[],"categories_segments":[],"categories_sizes":[],"default_left":[0,0,0,0,0,0,0,0,0,0,0,0,0,0,0],"id":17,"left_children":[1,3,5,7,9,11,13,-1,-1,-1,-1,-1,-1,-1,-1],"loss_changes":[1.0891782E3,7.7183606E2,8.376611E1,1.3880667E2,1.0611067E3,6.617456E1,1.620476E2,0E0,0E0,0E0,0E0,0E0,0E0,0E0,0E0],"parents":[2147483647,0,0,1,1,2,2,3,3,4,4,5,5,6,6],"right_children":[2,4,6,8,10,12,14,-1,-1,-1,-1,-1,-1,-1,-1],"split_conditions":[3.7325254E-1,3.2723473E1,3.175756E1,3.1262398E1,3.1844705E-1,5.793268E-1,4.3986693E-1,5.702526E-2,1.871804E-2,-1.6427314E-2,-2.3847604E-1,8.313428E-2,-4.831717E-1,1.1259253E-2,6.52657E-2],"split_indices":[1,4,4,4,1,1,1,0,0,0,0,0,0,0,0],"split_type":[0,0,0,0,0,0,0,0,0,0,0,0,0,0,0],"sum_hessian":[1.3840925E4,9.652941E3,4.187984E3,4.344218E3,5.308723E3,1.2700431E3,2.9179404E3,1.3920894E3,2.9521287E3,5.0849897E3,2.2373355E2,1.2689552E3,1.0879421E0,7.4722186E2,2.1707188E3],"tree_param":{"num_deleted":"0","num_feature":"11","num_nodes":"15","size_leaf_vector":"1"}},{"base_weights":[1.4068371E-1,-3.0870486E-2,5.785063E-1,-2.9984522E-1,7.733126E-2,-1.5450177E-1,5.9077924E-1,-1.9723838E-2,-2.5538263E-1,5.9586436E-2,-6.7220366E-4,3.592884E-2,6.899943E-2],"categories":[],"categories_nodes":[],"categories_segments":[],"categories_sizes":[],"default_left":[0,0,0,0,0,0,0,0,0,0,0,0,0],"id":18,"left_children":[1,3,5,7,9,-1,11,-1,-1,-1,-1,-1,-1],"loss_changes":[1.00350085E3,2.7941354E2,9.8937744E1,6.364595E2,2.9841455E2,0E0,8.5658325E1,0E0,0E0,0E0,0E0,0E0,0E0],"parents":[2147483647,0,0,1,1,2,2,3,3,4,4,6,6],"right_children":[2,4,6,8,10,-1,12,-1,-1,-1,-1,-1,-1],"split_conditions":[3.799476E-1,9.3081455E0,1.0020245E1,2.4980088E-1,-9.922884E-2,-1.5450177E-1,7.6090276E-2,-1.9723838E-2,-2.5538263E-1,5.9586436E-2,-6.7220366E-4,3.592884E-2,6.899943E-2],"split_indices":[1,2,2,1,1,0,3,0,0,0,0,0,0],"split_type":[0,0,0,0,0,0,0,0,0,0,0,0,0],"sum_hessian":[1.3359124E4,9.598877E3,3.7602463E3,2.7531506E3,6.8457266E3,2.0889833E1,3.7393567E3,2.6343174E3,1.188332E2,9.5404425E2,5.8916826E3,1.1232305E3,2.616126E3],"tree_param":{"num_deleted":"0","num_feature":"11","num_nodes":"13","size_leaf_vector":"1"}},{"base_weights":[1.3280094E-1,-3.8748845E-2,5.580192E-1,-2.785858E-1,5.839144E-2,-1.4668177E-1,5.6962556E-1,-2.0744516E-2,-1.8763562E-1,5.3302974E-2,-1.2728196E-3,3.7207752E-2,6.5539084E-2],"categories":[],"categories_nodes":[],"categories_segments":[],"categories_sizes":[],"default_left":[0,0,0,0,0,0,0,0,0,0,0,0,0],"id":19,"left_children":[1,3,5,7,9,-1,11,-1,-1,-1,-1,-1,-1],"loss_changes":[9.6102734E2,2.1873653E2,8.983789E1,3.072433E2,2.2558392E2,0E0,6.356787E1,0E0,0E0,0E0,0E0,0E0,0E0],"parents":[2147483647,0,0,1,1,2,2,3,3,4,4,6,6],"right_children":[2,4,6,8,10,-1,12,-1,-1,-1,-1,-1,-1],"split_conditions":[3.7325254E-1,9.3081455E0,1.032543E1,2.5954458E-1,-9.922884E-2,-1.4668177E-1,3.2661688E-2,-2.0744516E-2,-1.8763562E-1,5.3302974E-2,-1.2728196E-3,3.7207752E-2,6.5539084E-2],"split_indices":[1,2,2,1,1,0,3,0,0,0,0,0,0],"split_type":[0,0,0,0,0,0,0,0,0,0,0,0,0],"sum_hessian":[1.3173189E4,9.387009E3,3.7861802E3,2.7054507E3,6.681558E3,2.086407E1,3.7653162E3,2.591207E3,1.1424355E2,8.6985095E2,5.8117075E3,1.1414612E3,2.623855E3],"tree_param":{"num_deleted":"0","num_feature":"11","num_nodes":"13","size_leaf_vector":"1"}},{"base_weights":[1.2495054E-1,4.1366097E-1,-1.07732736E-1,2.1010691E-1,6.0767424E-1,-7.47079E-2,-1.5498488E0,2.9412553E-2,-5.132922E-2,-3.7737873E-1,6.177924E-2,5.6487113E-2,-1.2615475E-2,-1.8429725E-1,3.485466E-2],"categories":[],"categories_nodes":[],"categories_segments":[],"categories_sizes":[],"default_left":[0,0,0,0,0,0,0,0,0,0,0,0,0,0,0],"id":20,"left_children":[1,3,5,7,9,11,13,-1,-1,-1,-1,-1,-1,-1,-1],"loss_changes":[8.7164185E2,2.285451E2,3.4207922E2,1.7198616E2,1.3373645E2,2.3123383E2,9.012537E1,0E0,0E0,0E0,0E0,0E0,0E0,0E0,0E0],"parents":[2147483647,0,0,1,1,2,2,3,3,4,4,5,5,6,6],"right_children":[2,4,6,8,10,12,14,-1,-1,-1,-1,-1,-1,-1,-1],"split_conditions":[3.2673115E1,2.9884548E1,3.0929564E1,9.914236E-1,-1.405886E-1,-1.696829E-1,1.0880456E0,2.9412553E-2,-5.132922E-2,-3.7737873E-1,6.177924E-2,5.6487113E-2,-1.2615475E-2,-1.8429725E-1,3.485466E-2],"split_indices":[4,5,5,9,6,6,9,0,0,0,0,0,0,0,0],"split_type":[0,0,0,0,0,0,0,0,0,0,0,0,0,0,0],"sum_hessian":[1.2973428E4,5.789327E3,7.1841006E3,2.8262139E3,2.963113E3,7.0242944E3,1.5980635E2,2.5326543E3,2.9355975E2,5.9699125E0,2.957143E3,5.2221545E2,6.502079E3,1.3845697E2,2.1349388E1],"tree_param":{"num_deleted":"0","num_feature":"11","num_nodes":"15","size_leaf_vector":"1"}},{"base_weights":[1.1468264E-1,-4.880218E-2,4.5054227E-1,5.04626E-3,-7.474215E-1,4.6295673E-1,-2.4452813E0,-5.2526332E-3,4.2981476E-2,1.0012664E-1,-9.638377E-2,-4.880949E-1,4.6748415E-2,-6.8288165E-1,5.61682E-2],"categories":[],"categories_nodes":[],"categories_segments":[],"categories_sizes":[],"default_left":[0,0,0,0,0,0,0,0,0,0,0,0,0,0,0],"id":21,"left_children":[1,3,5,7,9,11,13,-1,-1,-1,-1,-1,-1,-1,-1],"loss_changes":[7.084715E2,3.2650903E2,1.5299841E2,1.9710634E2,2.3601941E2,1.0407007E2,2.436245E2,0E0,0E0,0E0,0E0,0E0,0E0,0E0,0E0],"parents":[2147483647,0,0,1,1,2,2,3,3,4,4,5,5,6,6],"right_children":[2,4,6,8,10,12,14,-1,-1,-1,-1,-1,-1,-1,-1],"split_conditions":[3.4764725E-1,7.6906644E-2,5.793268E-1,1.0558033E0,-2.1203934E-1,2.6584642E1,8.1293535E-1,-5.2526332E-3,4.2981476E-2,1.0012664E-1,-9.638377E-2,-4.880949E-1,4.6748415E-2,-6.8288165E-1,5.61682E-2],"split_indices":[1,6,1,9,1,5,9,0,0,0,0,0,0,0,0],"split_type":[0,0,0,0,0,0,0,0,0,0,0,0,0,0,0],"sum_hessian":[1.2901496E4,8.678136E3,4.223361E3,8.058029E3,6.2010693E2,4.206169E3,1.7191832E1,7.0969883E3,9.610406E2,6.789274E1,5.522142E2,2.648738E0,4.20352E3,6.477689E0,1.0714143E1],"tree_param":{"num_deleted":"0","num_feature":"11","num_nodes":"15","size_leaf_vector":"1"}},{"base_weights":[1.05938554E-1,3.806968E-1,-9.488106E-2,1.6549405E-1,5.7585734E-1,-3.203896E-1,2.6085934E-1,9.0710424E-2,3.2561223E-3,5.798176E-2,-4.404405E-1,-3.2596567E-1,-2.821525E-2,4.7358656E-3,7.1922086E-2],"categories":[],"categories_nodes":[],"categories_segments":[],"categories_sizes":[],"default_left":[0,0,0,0,0,0,0,0,0,0,0,0,0,0,0],"id":22,"left_children":[1,3,5,7,9,11,13,-1,-1,-1,-1,-1,-1,-1,-1],"loss_changes":[7.042706E2,2.262652E2,5.9169006E2,2.5280136E2,5.8291565E1,5.0639212E2,2.8001144E2,0E0,0E0,0E0,0E0,0E0,0E0,0E0,0E0],"parents":[2147483647,0,0,1,1,2,2,3,3,4,4,5,5,6,6],"right_children":[2,4,6,8,10,12,14,-1,-1,-1,-1,-1,-1,-1,-1],"split_conditions":[3.2662434E1,2.9849575E1,1.1597034E1,2.711298E1,4.4428086E0,2.6826593E1,3.4238716E1,9.0710424E-2,3.2561223E-3,5.798176E-2,-4.404405E-1,-3.2596567E-1,-2.821525E-2,4.7358656E-3,7.1922086E-2],"split_indices":[4,5,2,5,10,5,4,0,0,0,0,0,0,0,0],"split_type":[0,0,0,0,0,0,0,0,0,0,0,0,0,0,0],"sum_hessian":[1.2762226E4,5.388656E3,7.37357E3,2.5636155E3,2.8250403E3,4.512889E3,2.8606807E3,3.8879108E2,2.1748245E3,2.8236785E3,1.3617593E0,5.687261E1,4.4560166E3,1.952382E3,9.082987E2],"tree_param":{"num_deleted":"0","num_feature":"11","num_nodes":"15","size_leaf_vector":"1"}},{"base_weights":[1.14020936E-1,-1.5895581E-1,1.9250964E-1,-5.486606E-1,5.2696977E-2,3.1100115E-1,7.452725E-2,-1.5755048E-1,-3.422863E-2,-1.6306613E-1,8.784193E-3,2.7627612E-2,8.528084E-2,-5.1595878E-2,1.853255E-2],"categories":[],"categories_nodes":[],"categories_segments":[],"categories_sizes":[],"default_left":[0,0,0,0,0,0,0,0,0,0,0,0,0,0,0],"id":23,"left_children":[1,3,5,7,9,11,13,-1,-1,-1,-1,-1,-1,-1,-1],"loss_changes":[2.751353E2,2.3658414E2,1.3939923E2,2.1338583E2,1.10152275E2,9.337427E1,3.2712656E2,0E0,0E0,0E0,0E0,0E0,0E0,0E0,0E0],"parents":[2147483647,0,0,1,1,2,2,3,3,4,4,5,5,6,6],"right_children":[2,4,6,8,10,12,14,-1,-1,-1,-1,-1,-1,-1,-1],"split_conditions":[9.3081455E0,7.6090276E-2,-6.779697E-1,-2.2732997E0,5.606228E-1,4.701403E0,-1.0620943E0,-1.5755048E-1,-3.422863E-2,-1.6306613E-1,8.784193E-3,2.7627612E-2,8.528084E-2,-5.1595878E-2,1.853255E-2],"split_indices":[2,3,10,10,8,0,9,0,0,0,0,0,0,0,0],"split_type":[0,0,0,0,0,0,0,0,0,0,0,0,0,0,0],"sum_hessian":[1.2839007E4,2.8669578E3,9.97205E3,1.0084892E3,1.8584685E3,4.9744736E3,4.9975757E3,1.6765651E2,8.408327E2,3.7078938E1,1.8213896E3,4.676276E3,2.9819788E2,7.8900604E2,4.20857E3],"tree_param":{"num_deleted":"0","num_feature":"11","num_nodes":"15","size_leaf_vector":"1"}},{"base_weights":[1.0185227E-1,5.222495E-1,-2.0248637E-2,1.1153882E0,4.8151526E-1,-5.7347696E-2,6.448548E-1,1.1505332E-1,8.625939E-2,1.6390149E-2,6.3045345E-2,-3.7515413E-2,5.0899154E-4,-5.2978944E-2,6.698508E-2],"categories":[],"categories_nodes":[],"categories_segments":[],"categories_sizes":[],"default_left":[0,0,0,0,0,0,0,0,0,0,0,0,0,0,0],"id":24,"left_children":[1,3,5,7,9,11,13,-1,-1,-1,-1,-1,-1,-1,-1],"loss_changes":[6.4800085E2,6.811157E1,2.4144197E2,6.230316E-1,1.2574951E2,1.8389818E2,1.5533752E1,0E0,0E0,0E0,0E0,0E0,0E0,0E0,0E0],"parents":[2147483647,0,0,1,1,2,2,3,3,4,4,5,5,6,6],"right_children":[2,4,6,8,10,12,14,-1,-1,-1,-1,-1,-1,-1,-1],"split_conditions":[3.175756E1,2.7085878E1,1.904355E-1,3.1474503E1,2.9698507E1,2.7824915E1,7.582772E-2,1.1505332E-1,8.625939E-2,1.6390149E-2,6.3045345E-2,-3.7515413E-2,5.0899154E-4,-5.2978944E-2,6.698508E-2],"split_indices":[4,5,7,4,5,5,0,0,0,0,0,0,0,0,0],"split_type":[0,0,0,0,0,0,0,0,0,0,0,0,0,0,0],"sum_hessian":[1.2622791E4,2.8402937E3,9.782497E3,1.8082898E2,2.6594648E3,9.26653E3,5.159675E2,1.5563971E2,2.5189264E1,8.4965625E2,1.8098085E3,1.5207794E3,7.7457505E3,1.0330033E1,5.056375E2],"tree_param":{"num_deleted":"0","num_feature":"11","num_nodes":"15","size_leaf_vector":"1"}},{"base_weights":[7.920638E-2,-2.148099E-1,1.6527754E-1,-9.438274E-1,1.7299332E-2,3.0122244E-1,3.7370168E-2,-3.448297E-2,-2.0796953E-1,1.1365845E-2,-2.0488651E-1,7.5121904E-3,4.075889E-2,-1.465684E-1,5.9784963E-3],"categories":[],"categories_nodes":[],"categories_segments":[],"categories_sizes":[],"default_left":[0,0,0,0,0,0,0,0,0,0,0,0,0,0,0],"id":25,"left_children":[1,3,5,7,9,11,13,-1,-1,-1,-1,-1,-1,-1,-1],"loss_changes":[3.1136395E2,4.7149506E2,1.65475E2,4.5711682E2,4.212003E2,1.1092032E2,1.6532791E2,0E0,0E0,0E0,0E0,0E0,0E0,0E0,0E0],"parents":[2147483647,0,0,1,1,2,2,3,3,4,4,5,5,6,6],"right_children":[2,4,6,8,10,12,14,-1,-1,-1,-1,-1,-1,-1,-1],"split_conditions":[9.3081455E0,2.8832758E1,-7.921594E-1,7.934813E0,8.239998E-2,2.8017914E1,-1.3733329E-1,-3.448297E-2,-2.0796953E-1,1.1365845E-2,-2.0488651E-1,7.5121904E-3,4.075889E-2,-1.465684E-1,5.9784963E-3],"split_indices":[2,5,10,2,6,5,6,0,0,0,0,0,0,0,0],"split_type":[0,0,0,0,0,0,0,0,0,0,0,0,0,0,0],"sum_hessian":[1.2301397E4,2.7853247E3,9.516073E3,6.7190704E2,2.1134177E3,4.6124395E3,4.903634E3,4.4077097E2,2.3113612E2,2.0201495E3,9.3268135E1,1.4762075E3,3.136232E3,7.1106445E1,4.8325273E3],"tree_param":{"num_deleted":"0","num_feature":"11","num_nodes":"15","size_leaf_vector":"1"}},{"base_weights":[8.636159E-2,-2.6257515E-2,5.2498525E-1,-4.3847853E-1,3.1467304E-2,5.4060143E-1,-1.0264823E0,-2.9590461E-2,-1.94677E-1,-7.3847705E-3,2.6015824E-2,-1.413887E-1,5.5169653E-2,5.2401036E-2,-5.249833E-1],"categories":[],"categories_nodes":[],"categories_segments":[],"categories_sizes":[],"default_left":[0,0,0,0,0,0,0,0,0,0,0,0,0,0,0],"id":26,"left_children":[1,3,5,7,9,11,13,-1,-1,-1,-1,-1,-1,-1,-1],"loss_changes":[6.0767334E2,2.3295177E2,6.1445496E1,2.5801404E2,2.0685054E2,5.475128E1,1.6900943E2,0E0,0E0,0E0,0E0,0E0,0E0,0E0,0E0],"parents":[2147483647,0,0,1,1,2,2,3,3,4,4,5,5,6,6],"right_children":[2,4,6,8,10,12,14,-1,-1,-1,-1,-1,-1,-1,-1],"split_conditions":[4.099406E-1,7.934813E0,5.793268E-1,2.622141E-1,1.4415352E0,9.409874E0,1.3740902E-1,-2.9590461E-2,-1.94677E-1,-7.3847705E-3,2.6015824E-2,-1.413887E-1,5.5169653E-2,5.2401036E-2,-5.249833E-1],"split_indices":[1,2,1,1,0,2,0,0,0,0,0,0,0,0,0],"split_type":[0,0,0,0,0,0,0,0,0,0,0,0,0,0,0],"sum_hessian":[1.2300446E4,9.788209E3,2.5122375E3,1.201504E3,8.586705E3,2.487848E3,2.4389662E1,1.0988313E3,1.02672775E2,5.879705E3,2.707E3,1.3329431E1,2.4745186E3,1.8480833E1,5.9088297E0],"tree_param":{"num_deleted":"0","num_feature":"11","num_nodes":"15","size_leaf_vector":"1"}},{"base_weights":[5.7321113E-2,-6.2025663E-2,4.1851237E-1,-8.6976305E-2,7.549016E-1,3.3486962E-1,6.6848975E-1,-2.1943076E-2,7.0885792E-3,8.411203E-2,-3.0438286E-1,-8.049772E-3,5.007537E-2,6.973457E-2,-7.899746E-2],"categories":[],"categories_nodes":[],"categories_segments":[],"categories_sizes":[],"default_left":[0,0,0,0,0,0,0,0,0,0,0,0,0,0,0],"id":27,"left_children":[1,3,5,7,9,11,13,-1,-1,-1,-1,-1,-1,-1,-1],"loss_changes":[5.184743E2,1.8434381E2,6.223413E1,1.8347156E2,9.035101E1,1.543998E2,3.202722E1,0E0,0E0,0E0,0E0,0E0,0E0,0E0,0E0],"parents":[2147483647,0,0,1,1,2,2,3,3,4,4,5,5,6,6],"right_children":[2,4,6,8,10,12,14,-1,-1,-1,-1,-1,-1,-1,-1],"split_conditions":[3.7325254E-1,8.2178E0,3.0261024E1,2.9687521E1,3.1844705E-1,4.3986693E-1,5.389492E-1,-2.1943076E-2,7.0885792E-3,8.411203E-2,-3.0438286E-1,-8.049772E-3,5.007537E-2,6.973457E-2,-7.899746E-2],"split_indices":[1,0,5,5,1,1,1,0,0,0,0,0,0,0,0],"split_type":[0,0,0,0,0,0,0,0,0,0,0,0,0,0,0],"sum_hessian":[1.2026006E4,9.039841E3,2.986165E3,8.772796E3,2.6704572E2,2.2392493E3,7.4691583E2,4.7700703E3,4.002725E3,2.6188046E2,5.1652493E0,6.3920905E2,1.6000402E3,7.3293646E2,1.3979425E1],"tree_param":{"num_deleted":"0","num_feature":"11","num_nodes":"15","size_leaf_vector":"1"}},{"base_weights":[6.886967E-2,-4.145094E-2,3.9822417E-1,9.842066E-2,-2.5957203E-1,1.55094E-1,5.269246E-1,-2.114193E-1,1.1730589E-2,-1.8498147E-1,-1.2212266E-2,-1.3585413E-1,2.4754604E-2,5.428033E-2,-1.506112E-1],"categories":[],"categories_nodes":[],"categories_segments":[],"categories_sizes":[],"default_left":[0,0,0,0,0,0,0,0,0,0,0,0,0,0,0],"id":28,"left_children":[1,3,5,7,9,11,13,-1,-1,-1,-1,-1,-1,-1,-1],"loss_changes":[4.412916E2,2.7760754E2,9.5273926E1,2.319193E2,7.7684247E2,1.4813924E2,6.512909E1,0E0,0E0,0E0,0E0,0E0,0E0,0E0,0E0],"parents":[2147483647,0,0,1,1,2,2,3,3,4,4,5,5,6,6],"right_children":[2,4,6,8,10,12,14,-1,-1,-1,-1,-1,-1,-1,-1],"split_conditions":[3.6908036E-1,1.6399656E-1,3.412229E-1,-5.0050355E-2,-8.911405E-2,2.765279E1,5.793268E-1,-2.114193E-1,1.1730589E-2,-1.8498147E-1,-1.2212266E-2,-1.3585413E-1,2.4754604E-2,5.428033E-2,-1.506112E-1],"split_indices":[1,1,3,7,6,5,1,0,0,0,0,0,0,0,0],"split_type":[0,0,0,0,0,0,0,0,0,0,0,0,0,0,0],"sum_hessian":[1.2143766E4,9.097381E3,3.0463853E3,5.5432705E3,3.55411E3,1.055198E3,1.9911873E3,4.5973866E1,5.497297E3,2.8176193E2,3.2723484E3,5.99526E1,9.9524536E2,1.9764833E3,1.470395E1],"tree_param":{"num_deleted":"0","num_feature":"11","num_nodes":"15","size_leaf_vector":"1"}},{"base_weights":[6.0596894E-2,-4.2147454E-2,3.9464903E-1,8.616074E-2,-1.8099013E-1,3.311483E-1,7.611518E-1,-3.8376218E-1,1.2541436E-2,-1.1369499E-1,-6.8207607E-3,-9.448174E-4,4.9502864E-2,7.955143E-2,-3.2453474E-1],"categories":[],"categories_nodes":[],"categories_segments":[],"categories_sizes":[],"default_left":[0,0,0,0,0,0,0,0,0,0,0,0,0,0,0],"id":29,"left_children":[1,3,5,7,9,11,13,-1,-1,-1,-1,-1,-1,-1,-1],"loss_changes":[4.1338065E2,1.6411823E2,6.568201E1,7.379619E2,4.7695618E2,1.3488379E2,6.0074097E1,0E0,0E0,0E0,0E0,0E0,0E0,0E0,0E0],"parents":[2147483647,0,0,1,1,2,2,3,3,4,4,5,5,6,6],"right_children":[2,4,6,8,10,12,14,-1,-1,-1,-1,-1,-1,-1,-1],"split_conditions":[3.7659883E-1,-7.921594E-1,3.0549608E1,-1.7237857E-1,-1.6045879E0,4.4207114E-1,5.793268E-1,-3.8376218E-1,1.2541436E-2,-1.1369499E-1,-6.8207607E-3,-9.448174E-4,4.9502864E-2,7.955143E-2,-3.2453474E-1],"split_indices":[1,10,5,1,9,1,1,0,0,0,0,0,0,0,0],"split_type":[0,0,0,0,0,0,0,0,0,0,0,0,0,0,0],"sum_hessian":[1.2042715E4,9.210666E3,2.8320488E3,4.787131E3,4.423535E3,2.4154487E3,4.1660013E2,4.6457775E1,4.740673E3,4.6584973E2,3.9576853E3,7.849696E2,1.630479E3,4.1385208E2,2.7480333E0],"tree_param":{"num_deleted":"0","num_feature":"11","num_nodes":"15","size_leaf_vector":"1"}},{"base_weights":[5.0066847E-2,3.134716E-1,-1.5816353E-1,1.3329853E-1,5.0192523E-1,-3.3430526E-1,1.843025E-1,8.194987E-2,5.179364E-3,5.1117856E-2,-4.1843483E-1,-1.485558E-1,-2.6197387E-2,-9.078491E-3,6.930595E-2],"categories":[],"categories_nodes":[],"categories_segments":[],"categories_sizes":[],"default_left":[0,0,0,0,0,0,0,0,0,0,0,0,0,0,0],"id":30,"left_children":[1,3,5,7,9,11,13,-1,-1,-1,-1,-1,-1,-1,-1],"loss_changes":[6.478586E2,1.770008E2,3.9800403E2,1.4914047E2,1.1265198E2,3.623979E2,3.137306E2,0E0,0E0,0E0,0E0,0E0,0E0,0E0,0E0],"parents":[2147483647,0,0,1,1,2,2,3,3,4,4,5,5,6,6],"right_children":[2,4,6,8,10,12,14,-1,-1,-1,-1,-1,-1,-1,-1],"split_conditions":[3.270974E1,2.9884548E1,1.1749627E1,2.7085878E1,3.8011284E0,2.7301218E1,3.4238716E1,8.194987E-2,5.179364E-3,5.1117856E-2,-4.1843483E-1,-1.485558E-1,-2.6197387E-2,-9.078491E-3,6.930595E-2],"split_indices":[4,5,2,5,10,5,4,0,0,0,0,0,0,0,0],"split_type":[0,0,0,0,0,0,0,0,0,0,0,0,0,0,0],"sum_hessian":[1.1809799E4,5.2138896E3,6.595909E3,2.6663782E3,2.5475117E3,4.3556675E3,2.2402415E3,2.821199E2,2.3842583E3,2.5433806E3,4.13115E0,2.563275E2,4.09934E3,1.45457E3,7.856716E2],"tree_param":{"num_deleted":"0","num_feature":"11","num_nodes":"15","size_leaf_vector":"1"}},{"base_weights":[6.553589E-2,2.9776278E-1,-1.1200531E-1,5.1417696E-1,1.8874049E-1,-1.658338E-1,4.8741847E-1,8.024621E-2,4.435767E-2,-2.8696102E-1,1.9575136E-2,-1.2305061E-2,-7.098337E-2,2.7324447E-2,7.407517E-2],"categories":[],"categories_nodes":[],"categories_segments":[],"categories_sizes":[],"default_left":[0,0,0,0,0,0,0,0,0,0,0,0,0,0,0],"id":31,"left_children":[1,3,5,7,9,11,13,-1,-1,-1,-1,-1,-1,-1,-1],"loss_changes":[4.9222952E2,1.2194556E2,2.18401E2,3.4900818E1,7.435014E1,1.444316E2,3.0062225E1,0E0,0E0,0E0,0E0,0E0,0E0,0E0,0E0],"parents":[2147483647,0,0,1,1,2,2,3,3,4,4,5,5,6,6],"right_children":[2,4,6,8,10,12,14,-1,-1,-1,-1,-1,-1,-1,-1],"split_conditions":[3.2723473E1,3.1262398E1,1.5808588E-1,-1.9120597E0,-4.5826116E0,7.080294E-2,-1.0098399E0,8.024621E-2,4.435767E-2,-2.8696102E-1,1.9575136E-2,-1.2305061E-2,-7.098337E-2,2.7324447E-2,7.407517E-2],"split_indices":[4,4,7,9,9,6,9,0,0,0,0,0,0,0,0],"split_type":[0,0,0,0,0,0,0,0,0,0,0,0,0,0,0],"sum_hessian":[1.1936862E4,5.171619E3,6.7652427E3,1.7312645E3,3.4403547E3,6.208445E3,5.567975E2,3.385368E2,1.3927278E3,6.9346657E0,3.4334202E3,5.756915E3,4.515298E2,3.0284424E2,2.5395326E2],"tree_param":{"num_deleted":"0","num_feature":"11","num_nodes":"15","size_leaf_vector":"1"}},{"base_weights":[4.099664E-2,-2.5200337E-1,1.2734763E-1,-2.3289162E-1,-3.571598E0,2.599139E-1,3.2001326E-3,-4.7179237E-2,3.9210013E-4,-1.0929101E-1,-3.7455198E-1,-9.872708E-2,2.7382467E-2,2.1745713E-2,-7.754101E-3],"categories":[],"categories_nodes":[],"categories_segments":[],"categories_sizes":[],"default_left":[0,0,0,0,0,0,0,0,0,0,0,0,0,0,0],"id":32,"left_children":[1,3,5,7,9,11,13,-1,-1,-1,-1,-1,-1,-1,-1],"loss_changes":[2.9624042E2,1.6826244E2,1.4882954E2,1.4998672E2,2.4536133E0,7.614395E1,8.082005E1,0E0,0E0,0E0,0E0,0E0,0E0,0E0,0E0],"parents":[2147483647,0,0,1,1,2,2,3,3,4,4,5,5,6,6],"right_children":[2,4,6,8,10,12,14,-1,-1,-1,-1,-1,-1,-1,-1],"split_conditions":[9.3081455E0,5.0050355E-2,-7.921594E-1,3.20538E0,2.8584537E-1,-5.504313E0,1.2207404E-3,-4.7179237E-2,3.9210013E-4,-1.0929101E-1,-3.7455198E-1,-9.872708E-2,2.7382467E-2,2.1745713E-2,-7.754101E-3],"split_indices":[2,7,10,3,10,10,7,0,0,0,0,0,0,0,0],"split_type":[0,0,0,0,0,0,0,0,0,0,0,0,0,0,0],"sum_hessian":[1.1706449E4,2.6642812E3,9.042168E3,2.6500942E3,1.4187119E1,4.372289E3,4.669879E3,1.3187369E3,1.3313573E3,1.4077752E0,1.2779343E1,4.745766E1,4.3248315E3,1.2776848E3,3.392194E3],"tree_param":{"num_deleted":"0","num_feature":"11","num_nodes":"15","size_leaf_vector":"1"}},{"base_weights":[3.0959507E-2,3.8917866E-1,-1.1291944E-1,3.0290443E-1,7.006961E-1,-4.0557978E-1,-4.4255584E-2,9.9101655E-2,2.3752727E-2,9.141631E-2,5.9161212E-2,-1.5949845E-1,2.318061E-2,2.1082742E-2,-2.2582835E-2],"categories":[],"categories_nodes":[],"categories_segments":[],"categories_sizes":[],"default_left":[0,0,0,0,0,0,0,0,0,0,0,0,0,0,0],"id":33,"left_children":[1,3,5,7,9,11,13,-1,-1,-1,-1,-1,-1,-1,-1],"loss_changes":[5.961858E2,8.8872894E1,1.6582486E2,1.1661987E2,1.618155E1,1.1892384E3,3.0970148E2,0E0,0E0,0E0,0E0,0E0,0E0,0E0,0E0],"parents":[2147483647,0,0,1,1,2,2,3,3,4,4,5,5,6,6],"right_children":[2,4,6,8,10,12,14,-1,-1,-1,-1,-1,-1,-1,-1],"split_conditions":[3.216956E1,3.0592089E1,2.7964811E1,2.711298E1,-4.5664456E-1,3.3817562E1,-7.921594E-1,9.9101655E-2,2.3752727E-2,9.141631E-2,5.9161212E-2,-1.5949845E-1,2.318061E-2,2.1082742E-2,-2.2582835E-2],"split_indices":[4,5,5,5,9,4,10,0,0,0,0,0,0,0,0],"split_type":[0,0,0,0,0,0,0,0,0,0,0,0,0,0,0],"sum_hessian":[1.1565542E4,3.3136807E3,8.251861E3,2.5965444E3,7.171363E2,1.5672013E3,6.68466E3,2.2406297E2,2.3724814E3,2.4003343E2,4.7710287E2,5.462883E2,1.02091296E3,2.7795874E3,3.9050728E3],"tree_param":{"num_deleted":"0","num_feature":"11","num_nodes":"15","size_leaf_vector":"1"}},{"base_weights":[6.21778E-2,3.8130638E-1,-3.32771E-2,1.0082958E0,3.1941608E-1,-4.2241177E-1,3.7310414E-2,1.03948735E-1,5.008756E-2,-3.3695083E-3,4.8487354E-2,-8.844255E-2,5.192495E-2,-2.5959563E-1,4.277248E-3],"categories":[],"categories_nodes":[],"categories_segments":[],"categories_sizes":[],"default_left":[0,0,0,0,0,0,0,0,0,0,0,0,0,0,0],"id":34,"left_children":[1,3,5,7,9,11,13,-1,-1,-1,-1,-1,-1,-1,-1],"loss_changes":[3.58066E2,1.0469644E2,2.4856326E2,3.320282E0,1.44014E2,6.0494904E2,1.1028776E2,0E0,0E0,0E0,0E0,0E0,0E0,0E0,0E0],"parents":[2147483647,0,0,1,1,2,2,3,3,4,4,5,5,6,6],"right_children":[2,4,6,8,10,12,14,-1,-1,-1,-1,-1,-1,-1,-1],"split_conditions":[3.193813E1,2.7326853E1,2.7824915E1,3.1818598E1,2.9623066E1,3.422651E1,2.9686496E-1,1.03948735E-1,5.008756E-2,-3.3695083E-3,4.8487354E-2,-8.844255E-2,5.192495E-2,-2.5959563E-1,4.277248E-3],"split_indices":[4,5,5,4,5,4,8,0,0,0,0,0,0,0,0],"split_type":[0,0,0,0,0,0,0,0,0,0,0,0,0,0,0],"sum_hessian":[1.1752947E4,2.705343E3,9.047604E3,2.4167958E2,2.4636636E3,1.3884387E3,7.659165E3,2.266958E2,1.4983791E1,7.8632465E2,1.6773387E3,9.314808E2,4.5695795E2,1.4872452E1,7.644293E3],"tree_param":{"num_deleted":"0","num_feature":"11","num_nodes":"15","size_leaf_vector":"1"}},{"base_weights":[5.8500417E-2,3.6727774E-1,-3.366558E-2,4.8919305E-1,2.3335995E-1,1.399057E-1,-1.3058597E-1,5.509427E-3,5.25103E-2,-3.3957258E-1,2.438805E-2,-6.4766402E-3,4.4536926E-2,-4.852703E-3,-5.0066125E-2],"categories":[],"categories_nodes":[],"categories_segments":[],"categories_sizes":[],"default_left":[0,0,0,0,0,0,0,0,0,0,0,0,0,0,0],"id":35,"left_children":[1,3,5,7,9,11,13,-1,-1,-1,-1,-1,-1,-1,-1],"loss_changes":[3.3714343E2,4.4346954E1,1.5350883E2,2.21781E1,5.0448547E1,2.0445294E2,1.7779013E2,0E0,0E0,0E0,0E0,0E0,0E0,0E0,0E0],"parents":[2147483647,0,0,1,1,2,2,3,3,4,4,5,5,6,6],"right_children":[2,4,6,8,10,12,14,-1,-1,-1,-1,-1,-1,-1,-1],"split_conditions":[3.193813E1,3.1143757E1,-1.5027169E0,-1.0345775E-1,-4.417234E0,3.389233E1,3.3970154E1,5.509427E-3,5.25103E-2,-3.3957258E-1,2.438805E-2,-6.4766402E-3,4.4536926E-2,-4.852703E-3,-5.0066125E-2],"split_indices":[4,4,10,6,9,4,4,0,0,0,0,0,0,0,0],"split_type":[0,0,0,0,0,0,0,0,0,0,0,0,0,0,0],"sum_hessian":[1.1845298E4,2.7222266E3,9.123071E3,1.4235817E3,1.2986448E3,3.268746E3,5.854325E3,1.0895904E2,1.3146226E3,2.8237257E0,1.295821E3,1.9577605E3,1.3109856E3,4.7927354E3,1.0615898E3],"tree_param":{"num_deleted":"0","num_feature":"11","num_nodes":"15","size_leaf_vector":"1"}},{"base_weights":[5.8993213E-2,-1.870598E-2,4.8652494E-1,1.5267247E-1,-2.2191574E-1,4.984312E-1,-1.0321633E0,-3.520687E-2,2.3987234E-2,-1.1646616E-2,-7.4195474E-2,-1.4389752E-1,5.10385E-2],"categories":[],"categories_nodes":[],"categories_segments":[],"categories_sizes":[],"default_left":[0,0,0,0,0,0,0,0,0,0,0,0,0],"id":36,"left_children":[1,3,5,7,9,11,-1,-1,-1,-1,-1,-1,-1],"loss_changes":[3.888E2,3.4498108E2,2.3677408E2,2.3660818E2,2.4844072E2,4.239679E1,0E0,0E0,0E0,0E0,0E0,0E0,0E0],"parents":[2147483647,0,0,1,1,2,2,3,3,4,4,5,5],"right_children":[2,4,6,8,10,12,-1,-1,-1,-1,-1,-1,-1],"split_conditions":[4.3986693E-1,3.3048492E1,3.458739E1,2.8832758E1,2.961864E-1,1.0528886E1,-1.0321633E0,-3.520687E-2,2.3987234E-2,-1.1646616E-2,-7.4195474E-2,-1.4389752E-1,5.10385E-2],"split_indices":[1,4,4,5,1,2,0,0,0,0,0,0,0],"split_type":[0,0,0,0,0,0,0,0,0,0,0,0,0],"sum_hessian":[1.1702917E4,9.90394E3,1.7989762E3,5.3729077E3,4.5310327E3,1.7979493E3,1.0267359E0,7.9104504E2,4.581863E3,3.7681746E3,7.6285803E2,1.0293241E1,1.7876561E3],"tree_param":{"num_deleted":"0","num_feature":"11","num_nodes":"13","size_leaf_vector":"1"}},{"base_weights":[4.3647084E-2,3.466588E-1,-2.0006403E-2,3.968968E-1,-4.051546E-1,-6.533385E-1,3.7131894E-2,4.6182405E-2,1.1721916E-5,-3.7607983E-1,9.027666E-3,-1.8831907E-1,1.695997E-2,2.6963636E-2,-4.025013E-3],"categories":[],"categories_nodes":[],"categories_segments":[],"categories_sizes":[],"default_left":[0,0,0,0,0,0,0,0,0,0,0,0,0,0,0],"id":37,"left_children":[1,3,5,7,9,11,13,-1,-1,-1,-1,-1,-1,-1,-1],"loss_changes":[2.2556458E2,7.68409E1,3.4978168E2,4.9038696E1,2.1257426E2,8.0986176E2,1.5952982E2,0E0,0E0,0E0,0E0,0E0,0E0,0E0,0E0],"parents":[2147483647,0,0,1,1,2,2,3,3,4,4,5,5,6,6],"right_children":[2,4,6,8,10,12,14,-1,-1,-1,-1,-1,-1,-1,-1],"split_conditions":[3.1638538E1,1.0986664E1,7.934813E0,4.3946654E-2,-4.8829615E-2,-1.3428144E-2,3.2673115E1,4.6182405E-2,1.1721916E-5,-3.7607983E-1,9.027666E-3,-1.8831907E-1,1.695997E-2,2.6963636E-2,-4.025013E-3],"split_indices":[4,2,2,6,6,6,4,0,0,0,0,0,0,0,0],"split_type":[0,0,0,0,0,0,0,0,0,0,0,0,0,0,0],"sum_hessian":[1.1693346E4,2.0292062E3,9.66414E3,1.9025454E3,1.2666071E2,7.988703E2,8.86527E3,1.6348604E3,2.6768503E2,1.5446676E1,1.11214035E2,3.1974072E2,4.7912958E2,2.2131338E3,6.6521353E3],"tree_param":{"num_deleted":"0","num_feature":"11","num_nodes":"15","size_leaf_vector":"1"}},{"base_weights":[4.077791E-2,-3.6803942E-2,4.7632182E-1,-6.978504E-2,7.3789513E-1,4.9721152E-1,-9.185874E-1,-1.9935647E-2,9.136212E-3,8.331165E-2,-1.5700155E-1,5.8819305E-2,2.4884457E-2,-2.2399643E-2,-3.8559395E-1],"categories":[],"categories_nodes":[],"categories_segments":[],"categories_sizes":[],"default_left":[0,0,0,0,0,0,0,0,0,0,0,0,0,0,0],"id":38,"left_children":[1,3,5,7,9,11,13,-1,-1,-1,-1,-1,-1,-1,-1],"loss_changes":[3.9121008E2,2.5115096E2,5.1463837E1,1.9685905E2,8.951849E1,3.883954E1,5.254766E1,0E0,0E0,0E0,0E0,0E0,0E0,0E0,0E0],"parents":[2147483647,0,0,1,1,2,2,3,3,4,4,5,5,6,6],"right_children":[2,4,6,8,10,12,14,-1,-1,-1,-1,-1,-1,-1,-1],"split_conditions":[4.3986693E-1,7.388485E0,2.7852573E0,2.976223E1,3.1844705E-1,4.8079604E-1,4.7422075E-1,-1.9935647E-2,9.136212E-3,8.331165E-2,-1.5700155E-1,5.8819305E-2,2.4884457E-2,-2.2399643E-2,-3.8559395E-1],"split_indices":[1,0,0,5,1,1,1,0,0,0,0,0,0,0,0],"split_type":[0,0,0,0,0,0,0,0,0,0,0,0,0,0,0],"sum_hessian":[1.1576064E4,9.826604E3,1.7494615E3,9.426213E3,4.0039026E2,1.7242828E3,2.5178736E1,5.2248784E3,4.2013345E3,3.8513895E2,1.5251309E1,1.26099E3,4.632928E2,2.1233856E1,3.9448786E0],"tree_param":{"num_deleted":"0","num_feature":"11","num_nodes":"15","size_leaf_vector":"1"}},{"base_weights":[5.3462762E-2,-9.209004E-3,4.382446E-1,1.360749E-1,-1.6971144E-1,4.49663E-1,-5.5904686E-1,-2.72038E-1,1.4822373E-2,-5.0329667E-2,1.0612704E-3,4.7261816E-2,-1.3235834E-1],"categories":[],"categories_nodes":[],"categories_segments":[],"categories_sizes":[],"default_left":[0,0,0,0,0,0,0,0,0,0,0,0,0],"id":39,"left_children":[1,3,5,7,9,11,-1,-1,-1,-1,-1,-1,-1],"loss_changes":[2.7917712E2,2.321874E2,1.1413483E2,1.8177411E2,2.8458063E2,6.6541595E1,0E0,0E0,0E0,0E0,0E0,0E0,0E0],"parents":[2147483647,0,0,1,1,2,2,3,3,4,4,5,5],"right_children":[2,4,6,8,10,12,-1,-1,-1,-1,-1,-1,-1],"split_conditions":[4.3986693E-1,3.3048492E1,3.458739E1,-1.0681479E-1,3.369091E1,5.793268E-1,-5.5904686E-1,-2.72038E-1,1.4822373E-2,-5.0329667E-2,1.0612704E-3,4.7261816E-2,-1.3235834E-1],"split_indices":[1,4,4,7,4,1,0,0,0,0,0,0,0],"split_type":[0,0,0,0,0,0,0,0,0,0,0,0,0],"sum_hessian":[1.1575759E4,9.955261E3,1.6204979E3,5.22544E3,4.7298213E3,1.6183582E3,2.1397595E0,2.1186167E1,5.204254E3,1.6590046E3,3.0708167E3,1.5984E3,1.9958216E1],"tree_param":{"num_deleted":"0","num_feature":"11","num_nodes":"13","size_leaf_vector":"1"}},{"base_weights":[2.5287358E-2,2.60826E-1,-7.5502165E-2,9.244949E-1,2.1275087E-1,-1.5447304E-1,3.75008E-1,9.981504E-2,-4.4183794E-1,1.6826613E-2,8.227349E-2,3.4491032E-2,-2.6885381E-2,3.8743537E-2,-3.7010017E-1],"categories":[],"categories_nodes":[],"categories_segments":[],"categories_sizes":[],"default_left":[0,0,0,0,0,0,0,0,0,0,0,0,0,0,0],"id":40,"left_children":[1,3,5,7,9,11,13,-1,-1,-1,-1,-1,-1,-1,-1],"loss_changes":[2.6844E2,1.0791948E2,2.8179938E2,9.436572E1,8.5635345E1,3.85009E2,6.1277527E1,0E0,0E0,0E0,0E0,0E0,0E0,0E0,0E0],"parents":[2147483647,0,0,1,1,2,2,3,3,4,4,5,5,6,6],"right_children":[2,4,6,8,10,12,14,-1,-1,-1,-1,-1,-1,-1,-1],"split_conditions":[3.2348476E1,2.7085878E1,4.4405955E-1,2.4980088E-1,3.1123112E1,-8.4764406E-2,3.458739E1,9.981504E-2,-4.4183794E-1,1.6826613E-2,8.227349E-2,3.4491032E-2,-2.6885381E-2,3.8743537E-2,-3.7010017E-1],"split_indices":[4,5,1,1,5,1,4,0,0,0,0,0,0,0,0],"split_type":[0,0,0,0,0,0,0,0,0,0,0,0,0,0,0],"sum_hessian":[1.1305751E4,3.3875876E3,7.9181626E3,2.2758507E2,3.1600027E3,6.737746E3,1.1804165E3,2.2529242E2,2.2926407E0,2.946404E3,2.1359866E2,1.2552676E3,5.4824785E3,1.1777306E3,2.6858468E0],"tree_param":{"num_deleted":"0","num_feature":"11","num_nodes":"15","size_leaf_vector":"1"}},{"base_weights":[1.0110702E-2,2.2296794E-1,-6.975903E-2,8.849229E-1,1.7733689E-1,-9.2041546E-1,-9.627557E-3,1.0008047E-1,1.2838626E-2,-9.280923E-3,3.6239013E-2,-2.0754142E-1,-1.7940076E-2,1.6240044E-2,-2.3527024E-2],"categories":[],"categories_nodes":[],"categories_segments":[],"categories_sizes":[],"default_left":[0,0,0,0,0,0,0,0,0,0,0,0,0,0,0],"id":41,"left_children":[1,3,5,7,9,11,13,-1,-1,-1,-1,-1,-1,-1,-1],"loss_changes":[1.9143036E2,9.26429E1,4.188108E2,1.7218918E1,1.4377829E2,4.6228073E2,2.9692142E2,0E0,0E0,0E0,0E0,0E0,0E0,0E0,0E0],"parents":[2147483647,0,0,1,1,2,2,3,3,4,4,5,5,6,6],"right_children":[2,4,6,8,10,12,14,-1,-1,-1,-1,-1,-1,-1,-1],"split_conditions":[3.227892E1,2.711298E1,7.934813E0,3.1910154E1,2.9687521E1,-3.3616439E-1,-6.009983E-1,1.0008047E-1,1.2838626E-2,-9.280923E-3,3.6239013E-2,-2.0754142E-1,-1.7940076E-2,1.6240044E-2,-2.3527024E-2],"split_indices":[4,5,2,4,5,10,10,0,0,0,0,0,0,0,0],"split_type":[0,0,0,0,0,0,0,0,0,0,0,0,0,0,0],"sum_hessian":[1.1258132E4,3.071261E3,8.1868706E3,1.968744E2,2.8743865E3,5.3956396E2,7.6473066E3,1.7044394E2,2.643047E1,1.1687336E3,1.7056528E3,2.101728E2,3.2939117E2,4.339324E3,3.3079824E3],"tree_param":{"num_deleted":"0","num_feature":"11","num_nodes":"15","size_leaf_vector":"1"}},{"base_weights":[3.7936773E-2,-6.8051624E-3,3.4138203E-1,-2.347589E-1,6.503332E-2,2.4392347E-1,6.7379177E-1,-6.9621205E-2,-6.514522E-3,1.8512357E-2,-8.737794E-3,3.8118463E-2,-1.5435834E-2,2.110838E-2,7.759508E-2],"categories":[],"categories_nodes":[],"categories_segments":[],"categories_sizes":[],"default_left":[0,0,0,0,0,0,0,0,0,0,0,0,0,0,0],"id":42,"left_children":[1,3,5,7,9,11,13,-1,-1,-1,-1,-1,-1,-1,-1],"loss_changes":[1.531076E2,1.6097223E2,4.6781418E1,1.8431656E2,1.3682137E2,6.140487E1,1.5339371E1,0E0,0E0,0E0,0E0,0E0,0E0,0E0,0E0],"parents":[2147483647,0,0,1,1,2,2,3,3,4,4,5,5,6,6],"right_children":[2,4,6,8,10,12,14,-1,-1,-1,-1,-1,-1,-1,-1],"split_conditions":[4.3986693E-1,6.0028934E-1,1.8158514E1,-1.2200629E0,1.6399656E-1,4.8079604E-1,4.5405096E-1,-6.9621205E-2,-6.514522E-3,1.8512357E-2,-8.737794E-3,3.8118463E-2,-1.5435834E-2,2.110838E-2,7.759508E-2],"split_indices":[1,0,2,9,1,1,1,0,0,0,0,0,0,0,0],"split_type":[0,0,0,0,0,0,0,0,0,0,0,0,0,0,0],"sum_hessian":[1.1276037E4,9.827923E3,1.448115E3,2.3544978E3,7.473425E3,1.1211431E3,3.269719E2,6.319908E2,1.722507E3,4.1797983E3,3.2936262E3,8.338229E2,2.873202E2,5.9689037E1,2.6728287E2],"tree_param":{"num_deleted":"0","num_feature":"11","num_nodes":"15","size_leaf_vector":"1"}},{"base_weights":[1.8042004E-2,-3.396094E-2,3.6082917E-1,-2.681104E-1,8.4724285E-2,3.7429586E-1,-3.492255E-1,6.2798606E-3,-4.8229422E-2,2.6246449E-2,-1.2196072E-2,6.2055256E-2,2.2086797E-2],"categories":[],"categories_nodes":[],"categories_segments":[],"categories_sizes":[],"default_left":[0,0,0,0,0,0,0,0,0,0,0,0,0],"id":43,"left_children":[1,3,5,7,9,11,-1,-1,-1,-1,-1,-1,-1],"loss_changes":[1.9990173E2,2.706218E2,7.795384E1,2.3219113E2,2.3744476E2,5.5513275E1,0E0,0E0,0E0,0E0,0E0,0E0,0E0],"parents":[2147483647,0,0,1,1,2,2,3,3,4,4,5,5],"right_children":[2,4,6,8,10,12,-1,-1,-1,-1,-1,-1,-1],"split_conditions":[4.3682232E-1,7.4335015E-1,3.458739E1,3.2662434E1,1.528611E-1,2.847142E1,-3.492255E-1,6.2798606E-3,-4.8229422E-2,2.6246449E-2,-1.2196072E-2,6.2055256E-2,2.2086797E-2],"split_indices":[1,0,4,4,1,5,0,0,0,0,0,0,0],"split_type":[0,0,0,0,0,0,0,0,0,0,0,0,0],"sum_hessian":[1.1212403E4,9.736254E3,1.4761492E3,3.2746216E3,6.4616323E3,1.4719077E3,4.2415175E0,1.2869778E3,1.9876438E3,3.4739314E3,2.987701E3,5.638561E2,9.0805164E2],"tree_param":{"num_deleted":"0","num_feature":"11","num_nodes":"13","size_leaf_vector":"1"}},{"base_weights":[3.7520908E-2,-5.364803E-3,3.6195678E-1,-1.04229786E-1,1.7116469E-1,5.0004977E-1,1.0088449E-1,1.0682974E-2,-3.102507E-2,2.8274849E-2,-6.2053382E-2,5.412904E-2,-3.6943588E-1,-2.937053E-1,2.0014394E-2],"categories":[],"categories_nodes":[],"categories_segments":[],"categories_sizes":[],"default_left":[0,0,0,0,0,0,0,0,0,0,0,0,0,0,0],"id":44,"left_children":[1,3,5,7,9,11,13,-1,-1,-1,-1,-1,-1,-1,-1],"loss_changes":[1.5779453E2,1.748535E2,4.7685806E1,2.792815E2,3.1790985E2,1.5175896E2,1.3909482E2,0E0,0E0,0E0,0E0,0E0,0E0,0E0,0E0],"parents":[2147483647,0,0,1,1,2,2,3,3,4,4,5,5,6,6],"right_children":[2,4,6,8,10,12,14,-1,-1,-1,-1,-1,-1,-1,-1],"split_conditions":[4.458458E-1,2.9972443E1,4.7710037E-1,-1.5618699E0,3.3785515E1,3.440199E1,-1.7578661E-1,1.0682974E-2,-3.102507E-2,2.8274849E-2,-6.2053382E-2,5.412904E-2,-3.6943588E-1,-2.937053E-1,2.0014394E-2],"split_indices":[1,5,1,10,4,4,7,0,0,0,0,0,0,0,0],"split_type":[0,0,0,0,0,0,0,0,0,0,0,0,0,0,0],"sum_hessian":[1.1339837E4,1.0016751E4,1.3230856E3,6.4210596E3,3.5956917E3,8.6475964E2,4.5832593E2,3.1719824E3,3.2490771E3,3.152074E3,4.4361777E2,8.5720233E2,7.5573153E0,1.3596656E1,4.4472928E2],"tree_param":{"num_deleted":"0","num_feature":"11","num_nodes":"15","size_leaf_vector":"1"}},{"base_weights":[1.6636435E-2,-1.8769865E-3,6.233077E-1,1.2668931E-1,-9.171552E-2,-2.4510281E-1,6.534601E-1,-1.8362565E-2,1.7096985E-2,-3.9482288E-2,1.3091777E-3,4.2580944E-2,9.649713E-2],"categories":[],"categories_nodes":[],"categories_segments":[],"categories_sizes":[],"default_left":[0,0,0,0,0,0,0,0,0,0,0,0,0],"id":45,"left_children":[1,3,5,7,9,-1,11,-1,-1,-1,-1,-1,-1],"loss_changes":[1.24925934E2,1.2468781E2,3.2134247E1,6.1048363E1,2.018819E2,0E0,2.2776123E1,0E0,0E0,0E0,0E0,0E0,0E0],"parents":[2147483647,0,0,1,1,2,2,3,3,4,4,6,6],"right_children":[2,4,6,8,10,-1,12,-1,-1,-1,-1,-1,-1],"split_conditions":[7.388485E0,-1.1368502E0,5.202376E-1,7.934813E0,-9.4032997E-1,-2.4510281E-1,1.1291849E1,-1.8362565E-2,1.7096985E-2,-3.9482288E-2,1.3091777E-3,4.2580944E-2,9.649713E-2],"split_indices":[0,10,8,2,9,0,2,0,0,0,0,0,0],"split_type":[0,0,0,0,0,0,0,0,0,0,0,0,0],"sum_hessian":[1.1121655E4,1.079328E4,3.2837512E2,4.4395337E3,6.3537466E3,2.4095485E0,3.2596558E2,5.5399896E2,3.885535E3,1.631785E3,4.7219614E3,1.8970044E2,1.3626512E2],"tree_param":{"num_deleted":"0","num_feature":"11","num_nodes":"13","size_leaf_vector":"1"}},{"base_weights":[2.8750977E-2,4.6419144E-2,-7.790591E-1,-1.1526072E0,6.1524123E-2,1.1351223E-1,-1.1966543E0,-2.1008077E-1,7.291671E-2,4.2730827E-2,2.6918873E-3,-2.7099693E-1,-4.695837E-2],"categories":[],"categories_nodes":[],"categories_segments":[],"categories_sizes":[],"default_left":[0,0,0,0,0,0,0,0,0,0,0,0,0],"id":46,"left_children":[1,3,5,7,9,-1,11,-1,-1,-1,-1,-1,-1],"loss_changes":[1.600023E2,1.9873398E2,1.9316058E2,2.4511754E2,1.3711972E2,0E0,2.159921E2,0E0,0E0,0E0,0E0,0E0,0E0],"parents":[2147483647,0,0,1,1,2,2,3,3,4,4,6,6],"right_children":[2,4,6,8,10,-1,12,-1,-1,-1,-1,-1,-1],"split_conditions":[1.1169775E-1,-1.8960999E-1,-2.3750435E-1,1.1247821E0,-9.429984E-2,1.1351223E-1,3.384008E-2,-2.1008077E-1,7.291671E-2,4.2730827E-2,2.6918873E-3,-2.7099693E-1,-4.695837E-2],"split_indices":[6,1,1,9,1,0,1,0,0,0,0,0,0],"split_type":[0,0,0,0,0,0,0,0,0,0,0,0,0],"sum_hessian":[1.12069795E4,1.0968033E4,2.3894681E2,1.3551616E2,1.0832517E4,4.2484997E1,1.964618E2,9.003323E1,4.548292E1,9.3526263E2,9.897254E3,6.2872536E1,1.3358928E2],"tree_param":{"num_deleted":"0","num_feature":"11","num_nodes":"13","size_leaf_vector":"1"}},{"base_weights":[2.6929183E-2,2.6502436E-1,-2.5075892E-2,3.664853E-1,4.7987953E-2,-5.0302114E-2,4.0704226E-1,-2.8051016E-1,3.729644E-2,6.5590777E-3,-3.006179E-1,-3.7518118E-2,-1.2733953E-3,1.6081188E-2,7.007216E-2],"categories":[],"categories_nodes":[],"categories_segments":[],"categories_sizes":[],"default_left":[0,0,0,0,0,0,0,0,0,0,0,0,0,0,0],"id":47,"left_children":[1,3,5,7,9,11,13,-1,-1,-1,-1,-1,-1,-1,-1],"loss_changes":[1.3775926E2,4.390132E1,9.956198E1,2.8971008E1,3.441671E1,1.053114E2,3.631807E1,0E0,0E0,0E0,0E0,0E0,0E0,0E0,0E0],"parents":[2147483647,0,0,1,1,2,2,3,3,4,4,5,5,6,6],"right_children":[2,4,6,8,10,12,14,-1,-1,-1,-1,-1,-1,-1,-1],"split_conditions":[3.175756E1,-6.0069837E-2,1.5808588E-1,-4.5826116E0,3.642739E0,1.0197179E0,-1.0098399E0,-2.8051016E-1,3.729644E-2,6.5590777E-3,-3.006179E-1,-3.7518118E-2,-1.2733953E-3,1.6081188E-2,7.007216E-2],"split_indices":[4,9,7,9,9,8,9,0,0,0,0,0,0,0,0],"split_type":[0,0,0,0,0,0,0,0,0,0,0,0,0,0,0],"sum_hessian":[1.112409E4,1.9934354E3,9.130654E3,1.3579347E3,6.3550073E2,8.62786E3,5.027942E2,1.8878078E0,1.3560469E3,6.328319E2,2.6688302E0,8.933584E2,7.734502E3,2.7433243E2,2.2846178E2],"tree_param":{"num_deleted":"0","num_feature":"11","num_nodes":"15","size_leaf_vector":"1"}},{"base_weights":[5.939019E-2,4.6479378E-2,9.4811E-1,1.7722277E-1,-3.0975828E-2,9.864064E-1,-1.534455E-1,2.7706126E-2,-9.192102E-3,-8.667879E-3,2.753054E-2,6.505722E-2,1.06606774E-1],"categories":[],"categories_nodes":[],"categories_segments":[],"categories_sizes":[],"default_left":[0,0,0,0,0,0,0,0,0,0,0,0,0],"id":48,"left_children":[1,3,5,7,9,11,-1,-1,-1,-1,-1,-1,-1],"loss_changes":[1.3025122E2,1.1336493E2,1.6968124E1,1.1193268E2,1.19968414E2,3.6054688E0,0E0,0E0,0E0,0E0,0E0,0E0,0E0],"parents":[2147483647,0,0,1,1,2,2,3,3,4,4,5,5],"right_children":[2,4,6,8,10,12,-1,-1,-1,-1,-1,-1,-1],"split_conditions":[1.1391029E1,3.2662434E1,3.4298225E1,1.5705438E-1,1.4191108E1,9.3081455E0,-1.534455E-1,2.7706126E-2,-9.192102E-3,-8.667879E-3,2.753054E-2,6.505722E-2,1.06606774E-1],"split_indices":[0,4,4,9,2,2,0,0,0,0,0,0,0],"split_type":[0,0,0,0,0,0,0,0,0,0,0,0,0],"sum_hessian":[1.1354606E4,1.1193053E4,1.6155392E2,4.163623E3,7.0294297E3,1.5969315E2,1.860781E0,3.0370166E3,1.1266062E3,5.9483315E3,1.0810981E3,3.2374832E1,1.2731831E2],"tree_param":{"num_deleted":"0","num_feature":"11","num_nodes":"13","size_leaf_vector":"1"}},{"base_weights":[8.40042E-3,-3.6465306E-2,3.2863972E-1,7.806692E-2,-1.8181336E-1,3.572561E-1,-1.0821695E0,-6.0077246E-2,1.3580992E-2,-1.6154464E-1,-8.9623695E-3,1.1048525E-2,4.924817E-2,6.3704565E-2,-4.0574762E-1],"categories":[],"categories_nodes":[],"categories_segments":[],"categories_sizes":[],"default_left":[0,0,0,0,0,0,0,0,0,0,0,0,0,0,0],"id":49,"left_children":[1,3,5,7,9,11,13,-1,-1,-1,-1,-1,-1,-1,-1],"loss_changes":[1.5769426E2,1.6027524E2,5.4837616E1,2.1116283E2,5.6064014E2,4.408246E1,1.4100888E2,0E0,0E0,0E0,0E0,0E0,0E0,0E0,0E0],"parents":[2147483647,0,0,1,1,2,2,3,3,4,4,5,5,6,6],"right_children":[2,4,6,8,10,12,14,-1,-1,-1,-1,-1,-1,-1,-1],"split_conditions":[4.3986693E-1,1.800142E-1,5.793268E-1,4.7234252E-1,-9.460738E-2,2.0138256E-1,1.2384098E-1,-6.0077246E-2,1.3580992E-2,-1.6154464E-1,-8.9623695E-3,1.1048525E-2,4.924817E-2,6.3704565E-2,-4.0574762E-1],"split_indices":[1,1,1,0,6,0,0,0,0,0,0,0,0,0,0],"split_type":[0,0,0,0,0,0,0,0,0,0,0,0,0,0,0],"sum_hessian":[1.0973725E4,9.626002E3,1.3477227E3,5.3839707E3,4.242031E3,1.3216613E3,2.606137E1,4.2132904E2,4.962642E3,2.5530367E2,3.986727E3,4.685073E2,8.5315393E2,1.7015327E1,9.046042E0],"tree_param":{"num_deleted":"0","num_feature":"11","num_nodes":"15","size_leaf_vector":"1"}}]},"name":"gbtree"},"learner_model_param":{"base_score":"[8.4046054E-1]","boost_from_average":"1","num_class":"0","num_feature":"11","num_target":"1"},"objective":{"name":"binary:logistic","reg_loss_param":{"scale_pos_weight":"50"}}},"version":[3,2,0]}