{"learner":{"attributes":{"scikit_learn":"{\"_estimator_type\": \"classifier\"}"},"feature_names":["CHL","NDVI_daily","mlotst","precip_mm_day","so","thetao","uo","vo","wind_speed_ms","wind_u_ms","wind_v_ms"],"feature_types":["float","float","float","float","float","float","float","float","float","float","float"],"gradient_booster":{"model":{"cats":{"enc":[],"feature_segments":[],"sorted_idx":[]},"gbtree_model_param":{"num_parallel_tree":"1","num_trees":"50"},"iteration_indptr":[0,1,2,3,4,5,6,7,8,9,10,11,12,13,14,15,16,17,18,19,20,21,22,23,24,25,26,27,28,29,30,31,32,33,34,35,36,37,38,39,40,41,42,43,44,45,46,47,48,49,50],"tree_info":[0,0,0,0,0,0,0,0,0,0,0,0,0,0,0,0,0,0,0,0,0,0,0,0,0,0,0,0,0,0,0,0,0,0,0,0,0,0,0,0,0,0,0,0,0,0,0,0,0,0],"trees":[{"base_weights":[5.200763E-1,6.35689E-2,9.4074315E-1,6.464959E-1,-4.8819852E-1,-5.6694335E-1,9.4898534E-1,8.639838E-2,4.6861764E-2,-1.6950858E-1,-1.26827825E-2,7.0007935E-2,9.871355E-2],"categories":[],"categories_nodes":[],"categories_segments":[],"categories_sizes":[],"default_left":[0,0,0,0,0,0,0,0,0,0,0,0,0],"id":0,"left_children":[1,3,5,7,9,-1,11,-1,-1,-1,-1,-1,-1],"loss_changes":[3.5925825E3,2.8863552E3,5.358242E2,1.6840979E2,2.0104546E3,0E0,9.16543E1,0E0,0E0,0E0,0E0,0E0,0E0],"parents":[2147483647,0,0,1,1,2,2,3,3,4,4,6,6],"right_children":[2,4,6,8,10,-1,12,-1,-1,-1,-1,-1,-1],"split_conditions":[3.449947E-1,3.2639545E1,1.0274566E1,3.1498535E1,9.3081455E0,-5.6694335E-1,3.7326515E-1,8.639838E-2,4.6861764E-2,-1.6950858E-1,-1.26827825E-2,7.0007935E-2,9.871355E-2],"split_indices":[1,4,2,4,2,0,1,0,0,0,0,0,0],"split_type":[0,0,0,0,0,0,0,0,0,0,0,0,0],"sum_hessian":[1.8707018E4,8.971886E3,9.735132E3,4.362672E3,4.6092134E3,1.1268143E1,9.723864E3,1.9610641E3,2.4016077E3,1.0612418E3,3.5479717E3,1.2948861E3,8.428978E3],"tree_param":{"num_deleted":"0","num_feature":"11","num_nodes":"13","size_leaf_vector":"1"}},{"base_weights":[5.0743026E-1,9.8792285E-2,9.0668654E-1,6.0791904E-1,-3.465091E-1,-3.6656195E-1,9.1373104E-1,7.666465E-2,2.2853097E-2,-2.6951745E-2,-5.491469E-1,1.0003703E-1,8.005651E-2],"categories":[],"categories_nodes":[],"categories_segments":[],"categories_sizes":[],"default_left":[0,0,0,0,0,0,0,0,0,0,0,0,0],"id":1,"left_children":[1,3,5,7,9,-1,11,-1,-1,-1,-1,-1,-1],"loss_changes":[3.0298135E3,2.0811938E3,3.0590137E2,2.5773706E2,1.9383042E3,0E0,9.11626E1,0E0,0E0,0E0,0E0,0E0,0E0],"parents":[2147483647,0,0,1,1,2,2,3,3,4,4,6,6],"right_children":[2,4,6,8,10,-1,12,-1,-1,-1,-1,-1,-1],"split_conditions":[3.449947E-1,3.2665485E1,1.0274566E1,3.2127598E1,3.1018372E1,-3.6656195E-1,3.2810448E1,7.666465E-2,2.2853097E-2,-2.6951745E-2,-5.491469E-1,1.0003703E-1,8.005651E-2],"split_indices":[1,4,2,4,5,0,4,0,0,0,0,0,0],"split_type":[0,0,0,0,0,0,0,0,0,0,0,0,0],"sum_hessian":[1.8570127E4,9.177856E3,9.3922705E3,4.281883E3,4.8959736E3,1.3649322E1,9.378621E3,3.0181406E3,1.2637422E3,4.824825E3,7.114862E1,5.307435E3,4.071186E3],"tree_param":{"num_deleted":"0","num_feature":"11","num_nodes":"13","size_leaf_vector":"1"}},{"base_weights":[4.75566E-1,6.440184E-2,8.942185E-1,-4.895416E-1,2.6258188E-1,-2.8673574E-1,9.018322E-1,-3.6218587E-2,-3.3596268E-1,6.177015E-2,1.0767712E-2,6.496016E-2,9.348113E-2],"categories":[],"categories_nodes":[],"categories_segments":[],"categories_sizes":[],"default_left":[0,0,0,0,0,0,0,0,0,0,0,0,0],"id":2,"left_children":[1,3,5,7,9,-1,11,-1,-1,-1,-1,-1,-1],"loss_changes":[3.095096E3,9.961338E2,2.5774365E2,8.7272723E2,3.6754938E2,0E0,7.336035E1,0E0,0E0,0E0,0E0,0E0,0E0],"parents":[2147483647,0,0,1,1,2,2,3,3,4,4,6,6],"right_children":[2,4,6,8,10,-1,12,-1,-1,-1,-1,-1,-1],"split_conditions":[3.4955728E-1,9.3081455E0,9.96938E0,2.4968427E-1,-4.9987108E-2,-2.8673574E-1,3.7326515E-1,-3.6218587E-2,-3.3596268E-1,6.177015E-2,1.0767712E-2,6.496016E-2,9.348113E-2],"split_indices":[1,2,2,1,1,0,1,0,0,0,0,0,0],"split_type":[0,0,0,0,0,0,0,0,0,0,0,0,0],"sum_hessian":[1.7979973E4,9.071694E3,8.908277E3,2.3899497E3,6.6817446E3,1.7235943E1,8.891042E3,2.2894836E3,1.0046621E2,2.0284741E3,4.6532705E3,1.0304723E3,7.8605693E3],"tree_param":{"num_deleted":"0","num_feature":"11","num_nodes":"13","size_leaf_vector":"1"}},{"base_weights":[4.4716606E-1,-2.0056097E-1,6.3885987E-1,-4.892327E-1,-1.7880596E-1,8.434715E-1,5.6087476E-1,-3.0264708E-1,-1.4341711E-2,-3.3045682E-1,8.455364E-2,5.9218593E-2,-6.408013E-3],"categories":[],"categories_nodes":[],"categories_segments":[],"categories_sizes":[],"default_left":[0,0,0,0,0,0,0,0,0,0,0,0,0],"id":3,"left_children":[1,3,5,-1,7,9,11,-1,-1,-1,-1,-1,-1],"loss_changes":[2.1600625E3,4.0467822E2,2.1371875E2,0E0,3.982348E2,3.450464E1,1.902793E2,0E0,0E0,0E0,0E0,0E0,0E0],"parents":[2147483647,0,0,1,1,2,2,4,4,5,5,6,6],"right_children":[2,4,6,-1,8,10,12,-1,-1,-1,-1,-1,-1],"split_conditions":[9.409874E0,-5.2491836E-2,-2.2583697E-2,-4.892327E-1,5.1965994E-1,1.0528886E1,1.8477513E0,-3.0264708E-1,-1.4341711E-2,-3.3045682E-1,8.455364E-2,5.9218593E-2,-6.408013E-3],"split_indices":[2,7,7,0,8,2,9,0,0,0,0,0,0],"split_type":[0,0,0,0,0,0,0,0,0,0,0,0,0],"sum_hessian":[1.7394643E4,3.9723064E3,1.3422336E4,1.7300648E1,3.9550056E3,3.7013054E3,9.72103E3,4.750937E1,3.9074963E3,1.0457847E0,3.7002598E3,9.257279E3,4.6375082E2],"tree_param":{"num_deleted":"0","num_feature":"11","num_nodes":"13","size_leaf_vector":"1"}},{"base_weights":[4.0818036E-1,7.462736E-1,6.986996E-2,8.846328E-1,5.490837E-1,1.4732434E-1,-2.9295752E0,8.2736485E-2,1.00463234E-1,3.5525538E-2,6.696982E-2,6.976005E-2,-4.8608105E-3,-2.109096E-1,-3.9741763E-1],"categories":[],"categories_nodes":[],"categories_segments":[],"categories_sizes":[],"default_left":[0,0,0,0,0,0,0,0,0,0,0,0,0,0,0],"id":4,"left_children":[1,3,5,7,9,11,13,-1,-1,-1,-1,-1,-1,-1,-1],"loss_changes":[1.9062173E3,2.2693457E2,1.9359956E3,3.28208E1,8.017737E1,8.757958E2,1.7141016E2,0E0,0E0,0E0,0E0,0E0,0E0,0E0,0E0],"parents":[2147483647,0,0,1,1,2,2,3,3,4,4,5,5,6,6],"right_children":[2,4,6,8,10,12,14,-1,-1,-1,-1,-1,-1,-1,-1],"split_conditions":[3.2665485E1,3.1706442E1,3.0792048E1,3.0548876E1,2.9523453E1,3.1227437E-1,1.4038514E-2,8.2736485E-2,1.00463234E-1,3.5525538E-2,6.696982E-2,6.976005E-2,-4.8608105E-3,-2.109096E-1,-3.9741763E-1],"split_indices":[4,4,5,5,5,0,7,0,0,0,0,0,0,0,0],"split_type":[0,0,0,0,0,0,0,0,0,0,0,0,0,0,0],"sum_hessian":[1.6665043E4,8.334594E3,8.33045E3,4.8958857E3,3.4387083E3,8.121676E3,2.0877438E2,3.319566E3,1.5763197E3,1.320539E3,2.1181694E3,2.1318413E3,5.9898345E3,1.1862205E2,9.0152336E1],"tree_param":{"num_deleted":"0","num_feature":"11","num_nodes":"15","size_leaf_vector":"1"}},{"base_weights":[4.0697855E-1,7.056778E-2,8.137916E-1,6.857876E-1,-2.3110671E-1,-2.3620255E-1,8.216387E-1,6.9470815E-2,-5.9418356E-1,-6.0279083E-2,3.227916E-2,-4.9052325E-1,8.234482E-2],"categories":[],"categories_nodes":[],"categories_segments":[],"categories_sizes":[],"default_left":[0,0,0,0,0,0,0,0,0,0,0,0,0],"id":5,"left_children":[1,3,5,7,9,-1,11,-1,-1,-1,-1,-1,-1],"loss_changes":[2.2650442E3,1.6817458E3,1.8863574E2,1.8038843E2,1.2519487E3,0E0,8.1489746E1,0E0,0E0,0E0,0E0,0E0,0E0],"parents":[2147483647,0,0,1,1,2,2,3,3,4,4,6,6],"right_children":[2,4,6,8,10,-1,12,-1,-1,-1,-1,-1,-1],"split_conditions":[3.4955728E-1,3.2206184E1,1.0274566E1,1.3657034E1,1.1215552E1,-2.3620255E-1,2.6617115E1,6.9470815E-2,-5.9418356E-1,-6.0279083E-2,3.227916E-2,-4.9052325E-1,8.234482E-2],"split_indices":[1,4,2,2,2,0,5,0,0,0,0,0,0],"split_type":[0,0,0,0,0,0,0,0,0,0,0,0,0],"sum_hessian":[1.6549945E4,9.059466E3,7.490479E3,2.9803062E3,6.0791597E3,1.7723158E1,7.472756E3,2.977194E3,3.1120114E0,3.637912E3,2.4412476E3,1.5044985E0,7.4712515E3],"tree_param":{"num_deleted":"0","num_feature":"11","num_nodes":"13","size_leaf_vector":"1"}},{"base_weights":[3.710788E-1,6.7007697E-1,6.0912464E-2,8.270648E-1,4.9044454E-1,1.11910604E-1,-2.3837368E0,7.599488E-2,9.473135E-2,6.1160106E-2,2.3617113E-2,4.0749222E-2,-2.4849488E-3,-2.8425965E-1,-2.4878412E-2],"categories":[],"categories_nodes":[],"categories_segments":[],"categories_sizes":[],"default_left":[0,0,0,0,0,0,0,0,0,0,0,0,0,0,0],"id":6,"left_children":[1,3,5,7,9,11,13,-1,-1,-1,-1,-1,-1,-1,-1],"loss_changes":[1.4555667E3,2.2495947E2,9.6087866E2,3.3686523E1,1.1474902E2,3.0515225E2,1.5358344E2,0E0,0E0,0E0,0E0,0E0,0E0,0E0,0E0],"parents":[2147483647,0,0,1,1,2,2,3,3,4,4,5,5,6,6],"right_children":[2,4,6,8,10,12,14,-1,-1,-1,-1,-1,-1,-1,-1],"split_conditions":[3.276925E1,3.1706442E1,3.0927305E1,3.0485703E1,-3.342916E-1,-3.0933933E0,9.585008E-1,7.599488E-2,9.473135E-2,6.1160106E-2,2.3617113E-2,4.0749222E-2,-2.4849488E-3,-2.8425965E-1,-2.4878412E-2],"split_indices":[4,4,5,5,9,9,9,0,0,0,0,0,0,0,0],"split_type":[0,0,0,0,0,0,0,0,0,0,0,0,0,0,0],"sum_hessian":[1.5694716E4,7.990637E3,7.704078E3,4.2621616E3,3.7284758E3,7.5475815E3,1.5649683E2,2.740108E3,1.5220536E3,2.5242927E3,1.204183E3,2.3868555E3,5.160726E3,1.2853886E2,2.7957964E1],"tree_param":{"num_deleted":"0","num_feature":"11","num_nodes":"15","size_leaf_vector":"1"}},{"base_weights":[3.139822E-1,-3.474186E-1,5.290905E-1,-2.75521E-1,-2.2421255E0,4.2049286E-1,6.876272E-1,-9.78119E-2,-1.0691995E-2,-2.6336563E-1,-7.08687E-2,2.9941669E-2,6.886124E-2,7.04224E-2,-3.6286447E-2],"categories":[],"categories_nodes":[],"categories_segments":[],"categories_sizes":[],"default_left":[0,0,0,0,0,0,0,0,0,0,0,0,0,0,0],"id":7,"left_children":[1,3,5,7,9,11,13,-1,-1,-1,-1,-1,-1,-1,-1],"loss_changes":[2.1304082E3,5.0002936E2,1.9423657E2,4.1946844E2,7.87182E1,2.1755505E2,8.031055E1,0E0,0E0,0E0,0E0,0E0,0E0,0E0,0E0],"parents":[2147483647,0,0,1,1,2,2,3,3,4,4,5,5,6,6],"right_children":[2,4,6,8,10,12,14,-1,-1,-1,-1,-1,-1,-1,-1],"split_conditions":[1.0274566E1,3.0927305E1,2.9973175E1,2.8384869E1,4.2018933E0,1.3771478E1,3.8810055E0,-9.78119E-2,-1.0691995E-2,-2.6336563E-1,-7.08687E-2,2.9941669E-2,6.886124E-2,7.04224E-2,-3.6286447E-2],"split_indices":[2,5,5,5,0,2,0,0,0,0,0,0,0,0,0],"split_type":[0,0,0,0,0,0,0,0,0,0,0,0,0,0,0],"sum_hessian":[1.4971813E4,3.674154E3,1.1297659E4,3.5409333E3,1.3322076E2,6.7070083E3,4.5906514E3,6.8433923E2,2.856594E3,1.0555265E2,2.7668104E1,4.6219614E3,2.0850466E3,4.5195757E3,7.1075745E1],"tree_param":{"num_deleted":"0","num_feature":"11","num_nodes":"15","size_leaf_vector":"1"}},{"base_weights":[3.307392E-1,-2.2143319E-1,5.148061E-1,-1.4788094E-1,-2.3309143E0,7.424103E-1,4.4119582E-1,-8.1611775E-2,3.1219277E-4,-2.8440952E-1,-2.1827035E-1,-2.5540933E-1,7.4472755E-2,2.862951E-2,6.51225E-2],"categories":[],"categories_nodes":[],"categories_segments":[],"categories_sizes":[],"default_left":[0,0,0,0,0,0,0,0,0,0,0,0,0,0,0],"id":8,"left_children":[1,3,5,7,9,11,13,-1,-1,-1,-1,-1,-1,-1,-1],"loss_changes":[1.5279568E3,5.8288184E2,1.8856445E2,3.6662936E2,3.4198608E0,2.2937744E1,2.770553E2,0E0,0E0,0E0,0E0,0E0,0E0,0E0,0E0],"parents":[2147483647,0,0,1,1,2,2,3,3,4,4,5,5,6,6],"right_children":[2,4,6,8,10,12,14,-1,-1,-1,-1,-1,-1,-1,-1],"split_conditions":[9.409874E0,3.0927305E1,-2.6856288E-2,2.8436506E1,3.1018372E1,1.0528886E1,2.9984161E1,-8.1611775E-2,3.1219277E-4,-2.8440952E-1,-2.1827035E-1,-2.5540933E-1,7.4472755E-2,2.862951E-2,6.51225E-2],"split_indices":[2,5,7,5,5,2,5,0,0,0,0,0,0,0,0],"split_type":[0,0,0,0,0,0,0,0,0,0,0,0,0,0,0],"sum_hessian":[1.5031397E4,3.7579429E3,1.1273454E4,3.6323616E3,1.2558113E2,2.7527664E3,8.5206875E3,6.687077E2,2.963654E3,2.406529E1,1.0151584E2,1.1601378E0,2.7516062E3,4.905297E3,3.615391E3],"tree_param":{"num_deleted":"0","num_feature":"11","num_nodes":"15","size_leaf_vector":"1"}},{"base_weights":[3.0216846E-1,6.2781227E-1,-6.09812E-3,7.8617156E-1,4.6084785E-1,-3.906364E-1,4.8010483E-1,7.9690956E-2,2.0537006E-2,-1.16514936E-1,5.9705764E-2,-9.5807515E-2,-1.43818995E-2,2.9717509E-2,8.131941E-2],"categories":[],"categories_nodes":[],"categories_segments":[],"categories_sizes":[],"default_left":[0,0,0,0,0,0,0,0,0,0,0,0,0,0,0],"id":9,"left_children":[1,3,5,7,9,11,13,-1,-1,-1,-1,-1,-1,-1,-1],"loss_changes":[1.4744065E3,1.8848633E2,1.4110221E3,2.2688965E1,7.7125073E2,5.9006195E2,2.0284094E2,0E0,0E0,0E0,0E0,0E0,0E0,0E0,0E0],"parents":[2147483647,0,0,1,1,2,2,3,3,4,4,5,5,6,6],"right_children":[2,4,6,8,10,12,14,-1,-1,-1,-1,-1,-1,-1,-1],"split_conditions":[3.2719658E1,3.1639301E1,1.1597034E1,1.11087374E-1,7.934813E0,9.3081455E0,3.4223457E1,7.9690956E-2,2.0537006E-2,-1.16514936E-1,5.9705764E-2,-9.5807515E-2,-1.43818995E-2,2.9717509E-2,8.131941E-2],"split_indices":[4,4,2,6,2,2,4,0,0,0,0,0,0,0,0],"split_type":[0,0,0,0,0,0,0,0,0,0,0,0,0,0,0],"sum_hessian":[1.4686468E4,7.1414316E3,7.5450366E3,3.6632617E3,3.47817E3,4.2130938E3,3.3319429E3,3.596399E3,6.686271E1,2.6826123E2,3.2099087E3,1.2762E3,2.9368938E3,2.151984E3,1.179959E3],"tree_param":{"num_deleted":"0","num_feature":"11","num_nodes":"15","size_leaf_vector":"1"}},{"base_weights":[2.6865187E-1,4.9422416E-3,7.368128E-1,4.4707358E-2,-6.87648E-1,-1.9047858E-1,7.414052E-1,4.855732E-3,-6.600301E-1,-1.5657896E-1,-9.598452E-3,6.7390464E-2,8.912863E-2],"categories":[],"categories_nodes":[],"categories_segments":[],"categories_sizes":[],"default_left":[0,0,0,0,0,0,0,0,0,0,0,0,0],"id":10,"left_children":[1,3,5,7,9,-1,11,-1,-1,-1,-1,-1,-1],"loss_changes":[1.7335127E3,2.4742804E2,6.2789307E1,2.1767612E2,2.5329855E2,0E0,5.0503906E1,0E0,0E0,0E0,0E0,0E0,0E0],"parents":[2147483647,0,0,1,1,2,2,3,3,4,4,6,6],"right_children":[2,4,6,8,10,-1,12,-1,-1,-1,-1,-1,-1],"split_conditions":[3.7326515E-1,8.362072E-2,9.7659235E0,2.1057771E-1,3.173925E-2,-1.9047858E-1,3.0200232E1,4.855732E-3,-6.600301E-1,-1.5657896E-1,-9.598452E-3,6.7390464E-2,8.912863E-2],"split_indices":[1,6,2,7,7,0,5,0,0,0,0,0,0],"split_type":[0,0,0,0,0,0,0,0,0,0,0,0,0],"sum_hessian":[1.4040281E4,8.981895E3,5.0583867E3,8.495084E3,4.8681036E2,8.060668E0,5.050326E3,8.491157E3,3.9268854E0,1.953006E2,2.9150977E2,3.4859065E3,1.5644197E3],"tree_param":{"num_deleted":"0","num_feature":"11","num_nodes":"13","size_leaf_vector":"1"}},{"base_weights":[2.479417E-1,5.81047E-1,-2.8905785E-2,1.6992527E-1,6.437734E-1,-7.052638E-1,2.1866019E-1,7.250338E-2,-1.15544595E-1,4.932855E-2,7.4182555E-2,-4.740582E-2,-2.8479934E-1,-3.4447627E-3,5.909455E-2],"categories":[],"categories_nodes":[],"categories_segments":[],"categories_sizes":[],"default_left":[0,0,0,0,0,0,0,0,0,0,0,0,0,0,0],"id":11,"left_children":[1,3,5,7,9,11,13,-1,-1,-1,-1,-1,-1,-1,-1],"loss_changes":[1.2681321E3,1.608457E2,1.2577601E3,6.097071E2,7.953345E1,9.957723E2,5.181747E2,0E0,0E0,0E0,0E0,0E0,0E0,0E0,0E0],"parents":[2147483647,0,0,1,1,2,2,3,3,4,4,5,5,6,6],"right_children":[2,4,6,8,10,12,14,-1,-1,-1,-1,-1,-1,-1,-1],"split_conditions":[3.265328E1,7.934813E0,1.0528886E1,3.1563387E1,2.979104E1,3.3959473E1,1.2970367E1,7.250338E-2,-1.15544595E-1,4.932855E-2,7.4182555E-2,-4.740582E-2,-2.8479934E-1,-3.4447627E-3,5.909455E-2],"split_indices":[4,2,2,4,5,4,2,0,0,0,0,0,0,0,0],"split_type":[0,0,0,0,0,0,0,0,0,0,0,0,0,0,0],"sum_hessian":[1.3750072E4,6.2404316E3,7.5096406E3,8.2657764E2,5.413854E3,2.0117172E3,5.4979233E3,5.8289514E2,2.4368245E2,2.1382126E3,3.2756416E3,1.8168915E3,1.9482567E2,3.2733555E3,2.224568E3],"tree_param":{"num_deleted":"0","num_feature":"11","num_nodes":"15","size_leaf_vector":"1"}},{"base_weights":[2.4621409E-1,4.7506127E-3,7.054797E-1,9.200961E-3,-6.3420486E-1,7.429531E-1,2.9909232E-1,-2.3522747E-3,8.185615E-2,5.9156805E-2,8.558601E-2,-7.310412E-1,3.7707884E-2],"categories":[],"categories_nodes":[],"categories_segments":[],"categories_sizes":[],"default_left":[0,0,0,0,0,0,0,0,0,0,0,0,0],"id":12,"left_children":[1,3,5,7,-1,9,11,-1,-1,-1,-1,-1,-1],"loss_changes":[1.51671E3,2.5327925E2,7.154932E1,2.3732004E2,0E0,7.323633E1,2.398745E2,0E0,0E0,0E0,0E0,0E0,0E0],"parents":[2147483647,0,0,1,1,2,2,3,3,5,5,6,6],"right_children":[2,4,6,8,-1,10,12,-1,-1,-1,-1,-1,-1],"split_conditions":[3.7326515E-1,1.7426069E-1,4.8190114E-1,8.5307E0,-6.3420486E-1,4.4047922E-1,2.758101E1,-2.3522747E-3,8.185615E-2,5.9156805E-2,8.558601E-2,-7.310412E-1,3.7707884E-2],"split_indices":[1,6,1,0,0,1,5,0,0,0,0,0,0],"split_type":[0,0,0,0,0,0,0,0,0,0,0,0,0],"sum_hessian":[1.3675915E4,8.964009E3,4.7119067E3,8.958725E3,5.2832704E0,4.3133403E3,3.9856595E2,8.611519E3,3.472062E2,1.8453479E3,2.4679927E3,3.1024876E0,3.9546347E2],"tree_param":{"num_deleted":"0","num_feature":"11","num_nodes":"13","size_leaf_vector":"1"}},{"base_weights":[2.081673E-1,-3.2923263E-2,6.7811203E-1,1.5479186E-1,-2.4971156E-1,4.4178534E-1,7.717468E-1,-4.718781E-1,1.8935835E-2,-7.134205E-2,-8.1449775E-3,4.5091644E-2,-4.6310043E-1,7.984875E-2,3.7941385E-2],"categories":[],"categories_nodes":[],"categories_segments":[],"categories_sizes":[],"default_left":[0,0,0,0,0,0,0,0,0,0,0,0,0,0,0],"id":13,"left_children":[1,3,5,7,9,11,13,-1,-1,-1,-1,-1,-1,-1,-1],"loss_changes":[1.4837542E3,3.523017E2,9.791797E1,7.825322E2,3.134013E2,6.056343E1,3.3048706E1,0E0,0E0,0E0,0E0,0E0,0E0,0E0,0E0],"parents":[2147483647,0,0,1,1,2,2,3,3,4,4,5,5,6,6],"right_children":[2,4,6,8,10,12,14,-1,-1,-1,-1,-1,-1,-1,-1],"split_conditions":[3.7326515E-1,-8.277863E-1,7.52932E-2,-1.7524305E-1,-2.8077029E-2,5.266959E-1,4.864103E-1,-4.718781E-1,1.8935835E-2,-7.134205E-2,-8.1449775E-3,4.5091644E-2,-4.6310043E-1,7.984875E-2,3.7941385E-2],"split_indices":[1,10,3,1,6,1,1,0,0,0,0,0,0,0,0],"split_type":[0,0,0,0,0,0,0,0,0,0,0,0,0,0,0],"sum_hessian":[1.3094693E4,8.655293E3,4.4394E3,4.638844E3,4.0164492E3,1.261413E3,3.1779868E3,3.1715546E1,4.6071284E3,1.0685143E3,2.947935E3,1.260056E3,1.3570133E0,2.9742332E3,2.0375352E2],"tree_param":{"num_deleted":"0","num_feature":"11","num_nodes":"15","size_leaf_vector":"1"}},{"base_weights":[2.0325983E-1,1.9789013E-4,6.3922614E-1,4.2165598E-1,-3.108109E-1,6.446026E-1,-2.6810474E0,6.687435E-2,2.7163554E-2,-2.8743504E-3,-1.0259294E-1,6.8753414E-2,2.287348E-2,8.780766E-2,-7.9263973E-1],"categories":[],"categories_nodes":[],"categories_segments":[],"categories_sizes":[],"default_left":[0,0,0,0,0,0,0,0,0,0,0,0,0,0,0],"id":14,"left_children":[1,3,5,7,9,11,13,-1,-1,-1,-1,-1,-1,-1,-1],"loss_changes":[1.1575664E3,1.1695581E3,7.5901E1,1.4025507E2,1.0355706E3,7.392029E1,1.3598254E2,0E0,0E0,0E0,0E0,0E0,0E0,0E0,0E0],"parents":[2147483647,0,0,1,1,2,2,3,3,4,4,5,5,6,6],"right_children":[2,4,6,8,10,12,14,-1,-1,-1,-1,-1,-1,-1,-1],"split_conditions":[3.7326515E-1,3.2639545E1,3.460036E1,3.1304361E1,1.8260823E-1,4.7854766E-1,4.1687387E-1,6.687435E-2,2.7163554E-2,-2.8743504E-3,-1.0259294E-1,6.8753414E-2,2.287348E-2,8.780766E-2,-7.9263973E-1],"split_indices":[1,4,4,4,1,1,1,0,0,0,0,0,0,0,0],"split_type":[0,0,0,0,0,0,0,0,0,0,0,0,0,0,0],"sum_hessian":[1.3074687E4,8.920669E3,4.1540186E3,3.7876057E3,5.133063E3,4.1481074E3,5.911114E0,1.429585E3,2.3580208E3,3.681853E3,1.4512097E3,3.7593616E3,3.8874573E2,4.017632E0,1.8934821E0],"tree_param":{"num_deleted":"0","num_feature":"11","num_nodes":"15","size_leaf_vector":"1"}},{"base_weights":[1.8251121E-1,-1.9486118E-2,6.3370544E-1,3.455546E-1,-9.503629E-2,-1.8477534E-1,6.393558E-1,-2.1525149E-1,3.9365772E-2,-1.3220762E-2,7.7480264E-2,4.7912322E-2,7.164662E-2],"categories":[],"categories_nodes":[],"categories_segments":[],"categories_sizes":[],"default_left":[0,0,0,0,0,0,0,0,0,0,0,0,0],"id":15,"left_children":[1,3,5,7,9,-1,11,-1,-1,-1,-1,-1,-1],"loss_changes":[1.1750764E3,2.4567308E2,5.7085938E1,1.8440056E2,2.3873045E2,0E0,4.881726E1,0E0,0E0,0E0,0E0,0E0,0E0],"parents":[2147483647,0,0,1,1,2,2,3,3,4,4,6,6],"right_children":[2,4,6,8,10,-1,12,-1,-1,-1,-1,-1,-1],"split_conditions":[3.7685874E-1,-7.61418E-2,9.7659235E0,-4.5777764E-2,8.5307E0,-1.8477534E-1,2.7158013E-1,-2.1525149E-1,3.9365772E-2,-1.3220762E-2,7.7480264E-2,4.7912322E-2,7.164662E-2],"split_indices":[1,1,2,7,0,0,0,0,0,0,0,0,0],"split_type":[0,0,0,0,0,0,0,0,0,0,0,0,0],"sum_hessian":[1.2891955E4,8.905821E3,3.9861338E3,1.52651E3,7.3793115E3,8.315325E0,3.9778184E3,2.8012827E1,1.4984971E3,7.077704E3,3.0160754E2,1.2946971E3,2.6831213E3],"tree_param":{"num_deleted":"0","num_feature":"11","num_nodes":"13","size_leaf_vector":"1"}},{"base_weights":[1.7732695E-1,4.4472224E-1,-8.381243E-2,3.047942E-1,6.6606444E-1,-2.8058907E-1,5.949397E-1,5.4177564E-2,7.88833E-3,-1.0784688E-1,6.910889E-2,3.4180876E-2,-4.7182586E-2,7.159822E-2,9.81612E-3],"categories":[],"categories_nodes":[],"categories_segments":[],"categories_sizes":[],"default_left":[0,0,0,0,0,0,0,0,0,0,0,0,0,0,0],"id":16,"left_children":[1,3,5,7,9,11,13,-1,-1,-1,-1,-1,-1,-1,-1],"loss_changes":[8.82794E2,1.9325818E2,8.545195E2,2.0494012E2,1.0632727E2,5.904876E2,8.639722E1,0E0,0E0,0E0,0E0,0E0,0E0,0E0,0E0],"parents":[2147483647,0,0,1,1,2,2,3,3,4,4,5,5,6,6],"right_children":[2,4,6,8,10,12,14,-1,-1,-1,-1,-1,-1,-1,-1],"split_conditions":[3.2889416E1,3.4745443E-1,4.4047922E-1,1.2589228E-1,2.7713583E1,-7.885733E-2,4.7854766E-1,5.4177564E-2,7.88833E-3,-1.0784688E-1,6.910889E-2,3.4180876E-2,-4.7182586E-2,7.159822E-2,9.81612E-3],"split_indices":[4,1,1,1,5,1,1,0,0,0,0,0,0,0,0],"split_type":[0,0,0,0,0,0,0,0,0,0,0,0,0,0,0],"sum_hessian":[1.2640975E4,6.2453286E3,6.3956465E3,3.8278293E3,2.4174993E3,4.9586685E3,1.436978E3,1.8674591E3,1.9603702E3,3.3592052E1,2.3839072E3,1.165301E3,3.7933672E3,1.1550929E3,2.818851E2],"tree_param":{"num_deleted":"0","num_feature":"11","num_nodes":"15","size_leaf_vector":"1"}},{"base_weights":[1.4791638E-1,4.5900983E-1,-7.914296E-2,6.7344546E-1,3.362222E-1,-2.6455653E-1,5.896167E-1,6.843733E-2,-3.6366582E-1,2.5964854E-2,7.981588E-2,2.969699E-2,-4.236748E-2,6.0628057E-2,-2.7993003E-1],"categories":[],"categories_nodes":[],"categories_segments":[],"categories_sizes":[],"default_left":[0,0,0,0,0,0,0,0,0,0,0,0,0,0,0],"id":17,"left_children":[1,3,5,7,9,11,13,-1,-1,-1,-1,-1,-1,-1,-1],"loss_changes":[8.6422205E2,1.356908E2,8.772095E2,9.096991E1,1.15971985E2,4.949866E2,8.842023E1,0E0,0E0,0E0,0E0,0E0,0E0,0E0,0E0],"parents":[2147483647,0,0,1,1,2,2,3,3,4,4,5,5,6,6],"right_children":[2,4,6,8,10,12,14,-1,-1,-1,-1,-1,-1,-1,-1],"split_conditions":[3.2665485E1,3.1222725E1,4.4047922E-1,5.266959E-1,4.317498E-1,-7.885733E-2,3.4545425E1,6.843733E-2,-3.6366582E-1,2.5964854E-2,7.981588E-2,2.969699E-2,-4.236748E-2,6.0628057E-2,-2.7993003E-1],"split_indices":[4,4,1,1,1,1,4,0,0,0,0,0,0,0,0],"split_type":[0,0,0,0,0,0,0,0,0,0,0,0,0,0,0],"sum_hessian":[1.2233235E4,5.161059E3,7.072177E3,1.8775797E3,3.2834795E3,5.537508E3,1.5346691E3,1.8736704E3,3.909278E0,2.8179236E3,4.655557E2,1.2224899E3,4.3150176E3,1.5279768E3,6.6922207E0],"tree_param":{"num_deleted":"0","num_feature":"11","num_nodes":"15","size_leaf_vector":"1"}},{"base_weights":[1.458757E-1,2.1957676E-3,5.333553E-1,1.3154975E-1,-1.4968026E-1,3.3377972E-1,6.2872046E-1,-3.271479E-1,1.582884E-2,-7.630073E-2,1.129116E-2,2.8989485E-3,4.6227235E-2,-1.6546132E-1,6.367918E-2],"categories":[],"categories_nodes":[],"categories_segments":[],"categories_sizes":[],"default_left":[0,0,0,0,0,0,0,0,0,0,0,0,0,0,0],"id":18,"left_children":[1,3,5,7,9,11,13,-1,-1,-1,-1,-1,-1,-1,-1],"loss_changes":[6.794262E2,1.749399E2,6.2620056E1,4.3809198E2,6.597339E2,4.1872635E1,4.2200073E1,0E0,0E0,0E0,0E0,0E0,0E0,0E0,0E0],"parents":[2147483647,0,0,1,1,2,2,3,3,4,4,5,5,6,6],"right_children":[2,4,6,8,10,12,14,-1,-1,-1,-1,-1,-1,-1,-1],"split_conditions":[3.8031438E-1,1.4440735E-1,7.52932E-2,-5.0050355E-2,1.0274566E1,4.4047922E-1,9.7659235E0,-3.271479E-1,1.582884E-2,-7.630073E-2,1.129116E-2,2.8989485E-3,4.6227235E-2,-1.6546132E-1,6.367918E-2],"split_indices":[1,1,3,7,2,1,2,0,0,0,0,0,0,0,0],"split_type":[0,0,0,0,0,0,0,0,0,0,0,0,0,0,0],"sum_hessian":[1.2202885E4,8.902709E3,3.3001763E3,4.807909E3,4.0947996E3,1.0685231E3,2.231653E3,3.6536663E1,4.7713726E3,1.2270093E3,2.8677903E3,3.1724036E2,7.512828E2,7.1422405E0,2.224511E3],"tree_param":{"num_deleted":"0","num_feature":"11","num_nodes":"15","size_leaf_vector":"1"}},{"base_weights":[1.3576971E-1,-9.4019715E-3,5.2396214E-1,1.1676798E-1,-1.5581489E-1,5.757834E-1,1.2716001E-1,-3.6303356E-1,1.4909287E-2,-7.9139945E-4,-4.765101E-2,4.0532913E-2,7.238578E-2,-4.9199723E-2,4.4029456E-2],"categories":[],"categories_nodes":[],"categories_segments":[],"categories_sizes":[],"default_left":[0,0,0,0,0,0,0,0,0,0,0,0,0,0,0],"id":19,"left_children":[1,3,5,7,9,11,13,-1,-1,-1,-1,-1,-1,-1,-1],"loss_changes":[6.780157E2,1.6179451E2,6.726318E1,5.70372E2,1.9228159E2,7.2804504E1,7.380293E1,0E0,0E0,0E0,0E0,0E0,0E0,0E0,0E0],"parents":[2147483647,0,0,1,1,2,2,3,3,4,4,5,5,6,6],"right_children":[2,4,6,8,10,12,14,-1,-1,-1,-1,-1,-1,-1,-1],"split_conditions":[3.7685874E-1,-6.6947174E-1,4.7854766E-1,-1.7524305E-1,2.1629403E0,4.424571E-1,2.6098675E-1,-3.6303356E-1,1.4909287E-2,-7.9139945E-4,-4.765101E-2,4.0532913E-2,7.238578E-2,-4.9199723E-2,4.4029456E-2],"split_indices":[1,10,1,1,8,1,0,0,0,0,0,0,0,0,0],"split_type":[0,0,0,0,0,0,0,0,0,0,0,0,0,0,0],"sum_hessian":[1.2030163E4,8.756488E3,3.2736738E3,4.703497E3,4.0529917E3,2.8951272E3,3.7854663E2,3.927631E1,4.6642207E3,2.7744653E3,1.2785264E3,1.3475952E3,1.5475321E3,1.269529E2,2.5159372E2],"tree_param":{"num_deleted":"0","num_feature":"11","num_nodes":"15","size_leaf_vector":"1"}},{"base_weights":[1.03561975E-1,4.121764E-1,-1.4226128E-1,5.519853E-1,2.2611049E-1,-1.1369359E-1,-1.8383782E-1,1.0537731E-1,5.1463503E-2,-2.3745148E-2,3.5415884E-2,2.6199056E-2,-1.9307677E-2],"categories":[],"categories_nodes":[],"categories_segments":[],"categories_sizes":[],"default_left":[0,0,0,0,0,0,0,0,0,0,0,0,0],"id":20,"left_children":[1,3,5,7,9,11,-1,-1,-1,-1,-1,-1,-1],"loss_changes":[8.844499E2,1.3433685E2,3.142395E2,5.475769E1,1.3181705E2,1.9041617E2,0E0,0E0,0E0,0E0,0E0,0E0,0E0],"parents":[2147483647,0,0,1,1,2,2,3,3,4,4,5,5],"right_children":[2,4,6,8,10,12,-1,-1,-1,-1,-1,-1,-1],"split_conditions":[3.2719658E1,3.1931007E1,3.1018372E1,2.7129093E1,2.9116947E1,3.04836E-1,-1.8383782E-1,1.0537731E-1,5.1463503E-2,-2.3745148E-2,3.5415884E-2,2.6199056E-2,-1.9307677E-2],"split_indices":[4,4,5,5,5,0,0,0,0,0,0,0,0],"split_type":[0,0,0,0,0,0,0,0,0,0,0,0,0],"sum_hessian":[1.1656495E4,5.167887E3,6.4886084E3,2.949604E3,2.2182832E3,6.38218E3,1.0642805E2,2.024568E2,2.747147E3,4.79941E2,1.738342E3,1.1129236E3,5.2692563E3],"tree_param":{"num_deleted":"0","num_feature":"11","num_nodes":"13","size_leaf_vector":"1"}},{"base_weights":[1.1337151E-1,-3.9647773E-2,4.3456033E-1,1.6707594E-2,-6.6261196E-1,-1.8167526E-1,4.450041E-1,5.9458013E-3,-6.670687E-2,-4.762851E-2,-1.903505E-1,-1.368995E-2,4.850998E-2],"categories":[],"categories_nodes":[],"categories_segments":[],"categories_sizes":[],"default_left":[0,0,0,0,0,0,0,0,0,0,0,0,0],"id":21,"left_children":[1,3,5,7,9,-1,11,-1,-1,-1,-1,-1,-1],"loss_changes":[5.7870404E2,2.8002313E2,9.0142334E1,2.1387506E2,1.5208423E2,0E0,8.8324524E1,0E0,0E0,0E0,0E0,0E0,0E0],"parents":[2147483647,0,0,1,1,2,2,3,3,4,4,6,6],"right_children":[2,4,6,8,10,-1,12,-1,-1,-1,-1,-1,-1],"split_conditions":[3.4955728E-1,7.202368E-2,1.0274566E1,3.177902E-1,3.0329874E1,-1.8167526E-1,2.7851284E1,5.9458013E-3,-6.670687E-2,-4.762851E-2,-1.903505E-1,-1.368995E-2,4.850998E-2],"split_indices":[1,6,2,1,5,0,5,0,0,0,0,0,0],"split_type":[0,0,0,0,0,0,0,0,0,0,0,0,0],"sum_hessian":[1.1773351E4,7.974875E3,3.798476E3,7.314183E3,6.606916E2,1.6740995E1,3.781735E3,6.88466E3,4.295232E2,5.7563995E2,8.5051674E1,2.4362479E2,3.5381104E3],"tree_param":{"num_deleted":"0","num_feature":"11","num_nodes":"13","size_leaf_vector":"1"}},{"base_weights":[1.0687511E-1,3.5774145E-1,-1.1399116E-1,-4.4335816E-2,4.2801243E-1,-3.450207E-1,2.5059652E-1,2.6258215E-2,-2.2202507E-1,3.807695E-2,7.7438764E-2,-3.4668154E-1,-2.9660387E-2,-2.3539735E-2,5.0348748E-2],"categories":[],"categories_nodes":[],"categories_segments":[],"categories_sizes":[],"default_left":[0,0,0,0,0,0,0,0,0,0,0,0,0,0,0],"id":22,"left_children":[1,3,5,7,9,11,13,-1,-1,-1,-1,-1,-1,-1,-1],"loss_changes":[6.440242E2,1.5377826E2,5.2076794E2,5.4185986E2,7.5509705E1,5.709591E2,2.9488083E2,0E0,0E0,0E0,0E0,0E0,0E0,0E0,0E0],"parents":[2147483647,0,0,1,1,2,2,3,3,4,4,5,5,6,6],"right_children":[2,4,6,8,10,12,14,-1,-1,-1,-1,-1,-1,-1,-1],"split_conditions":[3.2865383E1,7.934813E0,1.1597034E1,3.2428204E1,3.0864193E1,2.6826227E1,3.389233E1,2.6258215E-2,-2.2202507E-1,3.807695E-2,7.7438764E-2,-3.4668154E-1,-2.9660387E-2,-2.3539735E-2,5.0348748E-2],"split_indices":[4,2,2,4,5,5,4,0,0,0,0,0,0,0,0],"split_type":[0,0,0,0,0,0,0,0,0,0,0,0,0,0,0],"sum_hessian":[1.162159E4,5.4409644E3,6.1806255E3,8.095042E2,4.63146E3,3.7833013E3,2.397324E3,7.102071E2,9.929709E1,4.0774287E3,5.540314E2,5.6701927E1,3.7265994E3,8.205326E2,1.5767915E3],"tree_param":{"num_deleted":"0","num_feature":"11","num_nodes":"15","size_leaf_vector":"1"}},{"base_weights":[1.1612596E-1,-1.5628509E-1,1.9464625E-1,-3.5627875E-1,3.3600911E-1,3.101535E-1,8.350235E-2,-7.152935E-2,-8.772311E-3,5.143845E-2,-6.2275093E-2,2.6431208E-2,5.5264693E-2,-5.4766204E-2,2.0343415E-2],"categories":[],"categories_nodes":[],"categories_segments":[],"categories_sizes":[],"default_left":[0,0,0,0,0,0,0,0,0,0,0,0,0,0,0],"id":23,"left_children":[1,3,5,7,9,11,13,-1,-1,-1,-1,-1,-1,-1,-1],"loss_changes":[2.5057402E2,2.582086E2,1.1670758E2,1.7971085E2,1.2991815E2,4.9416107E1,3.5099002E2,0E0,0E0,0E0,0E0,0E0,0E0,0E0,0E0],"parents":[2147483647,0,0,1,1,2,2,3,3,4,4,5,5,6,6],"right_children":[2,4,6,8,10,12,14,-1,-1,-1,-1,-1,-1,-1,-1],"split_conditions":[9.3081455E0,7.5852925E-1,-6.848777E-1,5.6171954E-2,1.4469413E1,1.5907774E1,-1.0114481E0,-7.152935E-2,-8.772311E-3,5.143845E-2,-6.2275093E-2,2.6431208E-2,5.5264693E-2,-5.4766204E-2,2.0343415E-2],"split_indices":[2,9,10,3,3,2,9,0,0,0,0,0,0,0,0],"split_type":[0,0,0,0,0,0,0,0,0,0,0,0,0,0,0],"sum_hessian":[1.171223E4,2.6203699E3,9.09186E3,1.863573E3,7.56797E2,4.4575366E3,4.6343237E3,7.967654E2,1.0668076E3,6.3847375E2,1.18323265E2,3.750605E3,7.069315E2,7.394194E2,3.894904E3],"tree_param":{"num_deleted":"0","num_feature":"11","num_nodes":"15","size_leaf_vector":"1"}},{"base_weights":[7.8038156E-2,4.2183542E-1,-6.685612E-2,2.4158652E-1,5.9817356E-1,-3.87325E-2,-1.4149035E0,8.7435246E-2,1.2583765E-2,-2.4767363E-1,6.075863E-2,-4.807355E-2,6.209157E-4,-1.8019567E-1,2.7874036E-2],"categories":[],"categories_nodes":[],"categories_segments":[],"categories_sizes":[],"default_left":[0,0,0,0,0,0,0,0,0,0,0,0,0,0,0],"id":24,"left_children":[1,3,5,7,9,11,13,-1,-1,-1,-1,-1,-1,-1,-1],"loss_changes":[5.6356024E2,1.0647034E2,3.0170135E2,1.2150257E2,5.055963E1,1.549003E2,1.0711182E2,0E0,0E0,0E0,0E0,0E0,0E0,0E0,0E0],"parents":[2147483647,0,0,1,1,2,2,3,3,4,4,5,5,6,6],"right_children":[2,4,6,8,10,12,14,-1,-1,-1,-1,-1,-1,-1,-1],"split_conditions":[3.2287437E1,3.0006134E1,3.0969666E1,2.7357616E1,-1.391644E-1,2.7298655E1,3.1608723E1,8.7435246E-2,1.2583765E-2,-2.4767363E-1,6.075863E-2,-4.807355E-2,6.209157E-4,-1.8019567E-1,2.7874036E-2],"split_indices":[4,5,5,5,6,5,5,0,0,0,0,0,0,0,0],"split_type":[0,0,0,0,0,0,0,0,0,0,0,0,0,0,0],"sum_hessian":[1.1311665E4,3.3532778E3,7.9583867E3,1.659423E3,1.693855E3,7.796756E3,1.6163103E2,2.5559645E2,1.4038265E3,4.3693614E0,1.6894856E3,7.186922E2,7.0780635E3,1.3151222E2,3.0118805E1],"tree_param":{"num_deleted":"0","num_feature":"11","num_nodes":"15","size_leaf_vector":"1"}},{"base_weights":[7.177702E-2,-1.6049623E-1,1.8591884E-1,-1.130273E-1,-1.7400166E0,4.8902076E-1,1.2856495E-1,-1.7131259E-1,-6.3243653E-3,-1.962394E-1,-1.5699434E-1,3.7106458E-2,6.688195E-2,1.3843166E-2,-2.7110365E-1],"categories":[],"categories_nodes":[],"categories_segments":[],"categories_sizes":[],"default_left":[0,0,0,0,0,0,0,0,0,0,0,0,0,0,0],"id":25,"left_children":[1,3,5,7,9,11,13,-1,-1,-1,-1,-1,-1,-1,-1],"loss_changes":[2.9586896E2,2.7551663E2,1.3001172E2,2.8435544E2,9.741821E-1,2.499414E1,1.7669493E2,0E0,0E0,0E0,0E0,0E0,0E0,0E0,0E0],"parents":[2147483647,0,0,1,1,2,2,3,3,4,4,5,5,6,6],"right_children":[2,4,6,8,10,12,14,-1,-1,-1,-1,-1,-1,-1,-1],"split_conditions":[9.409874E0,3.0927305E1,-4.7608875E-2,-3.6317024E-2,3.1099674E1,3.5449324E0,1.5320292E-1,-1.7131259E-1,-6.3243653E-3,-1.962394E-1,-1.5699434E-1,3.7106458E-2,6.688195E-2,1.3843166E-2,-2.7110365E-1],"split_indices":[2,5,7,7,5,8,6,0,0,0,0,0,0,0,0],"split_type":[0,0,0,0,0,0,0,0,0,0,0,0,0,0,0],"sum_hessian":[1.1157648E4,3.6762485E3,7.4814E3,3.5700308E3,1.0621771E2,1.1892047E3,6.2921953E3,1.0671417E2,3.4633167E3,4.1463722E1,6.475399E1,7.1994885E2,4.6925583E2,6.2713555E3,2.0839697E1],"tree_param":{"num_deleted":"0","num_feature":"11","num_nodes":"15","size_leaf_vector":"1"}},{"base_weights":[9.072712E-2,-2.670858E-3,4.7251654E-1,3.4041855E-2,-4.588255E-1,5.403803E-1,1.0823105E-1,-1.038069E-2,1.8273352E-2,9.836833E-2,-6.725336E-2,8.860022E-3,5.95692E-2,1.481611E-2,-4.7903976E-1],"categories":[],"categories_nodes":[],"categories_segments":[],"categories_sizes":[],"default_left":[0,0,0,0,0,0,0,0,0,0,0,0,0,0,0],"id":26,"left_children":[1,3,5,7,9,11,13,-1,-1,-1,-1,-1,-1,-1,-1],"loss_changes":[4.0028885E2,1.5107448E2,5.44877E1,1.7115346E2,2.078131E2,4.6417847E1,6.872833E1,0E0,0E0,0E0,0E0,0E0,0E0,0E0,0E0],"parents":[2147483647,0,0,1,1,2,2,3,3,4,4,5,5,6,6],"right_children":[2,4,6,8,10,12,14,-1,-1,-1,-1,-1,-1,-1,-1],"split_conditions":[4.0921998E-1,7.660146E-2,4.7854766E-1,2.5378659E0,-2.1517132E-1,1.1801664E-1,2.7023888E0,-1.038069E-2,1.8273352E-2,9.836833E-2,-6.725336E-2,8.860022E-3,5.95692E-2,1.481611E-2,-4.7903976E-1],"split_indices":[1,6,1,3,1,0,0,0,0,0,0,0,0,0,0],"split_type":[0,0,0,0,0,0,0,0,0,0,0,0,0,0,0],"sum_hessian":[1.1224632E4,9.01923E3,2.2054011E3,8.348262E3,6.7096814E2,1.8586622E3,3.4673892E2,4.33224E3,4.0160222E3,8.6112724E1,5.848554E2,2.030197E2,1.6556425E3,3.448973E2,1.8415961E0],"tree_param":{"num_deleted":"0","num_feature":"11","num_nodes":"15","size_leaf_vector":"1"}},{"base_weights":[5.587596E-2,-3.4265026E-2,3.600923E-1,1.4121887E-1,-1.9064093E-1,2.3569363E-1,6.536666E-1,-3.4926972E-1,1.7597174E-2,-4.7111925E-2,-1.6482713E-3,-2.3326961E-2,4.119191E-2,6.8581775E-2,-2.0592976E-1],"categories":[],"categories_nodes":[],"categories_segments":[],"categories_sizes":[],"default_left":[0,0,0,0,0,0,0,0,0,0,0,0,0,0,0],"id":27,"left_children":[1,3,5,7,9,11,13,-1,-1,-1,-1,-1,-1,-1,-1],"loss_changes":[3.0169626E2,2.3293994E2,9.168524E1,5.0577557E2,2.1924939E2,1.4619815E2,6.664636E1,0E0,0E0,0E0,0E0,0E0,0E0,0E0,0E0],"parents":[2147483647,0,0,1,1,2,2,3,3,4,4,5,5,6,6],"right_children":[2,4,6,8,10,12,14,-1,-1,-1,-1,-1,-1,-1,-1],"split_conditions":[3.8031438E-1,-1.0550886E0,3.0212866E1,-1.7524305E-1,2.9871181E1,4.3760768E-1,5.266959E-1,-3.4926972E-1,1.7597174E-2,-4.7111925E-2,-1.6482713E-3,-2.3326961E-2,4.119191E-2,6.8581775E-2,-2.0592976E-1],"split_indices":[1,10,5,1,5,1,1,0,0,0,0,0,0,0,0],"split_type":[0,0,0,0,0,0,0,0,0,0,0,0,0,0,0],"sum_hessian":[1.1000384E4,8.486635E3,2.5137495E3,3.999039E3,4.4875957E3,1.7668643E3,7.4688513E2,3.6939865E1,3.962099E3,1.7184159E3,2.7691797E3,4.8250906E2,1.2843552E3,7.38876E2,8.009134E0],"tree_param":{"num_deleted":"0","num_feature":"11","num_nodes":"15","size_leaf_vector":"1"}},{"base_weights":[6.0929753E-2,-1.4703435E-2,4.0773824E-1,-6.7951544E-3,-2.9979024E0,4.8892882E-1,1.6436532E-2,-2.4324687E-2,5.8952994E-3,-3.9218792E-1,5.334988E-2,2.345683E-2,5.969716E-2,-4.708775E-1,1.9315269E-2],"categories":[],"categories_nodes":[],"categories_segments":[],"categories_sizes":[],"default_left":[0,0,0,0,0,0,0,0,0,0,0,0,0,0,0],"id":28,"left_children":[1,3,5,7,9,11,13,-1,-1,-1,-1,-1,-1,-1,-1],"loss_changes":[2.8914502E2,2.1349945E2,6.2693115E1,1.403598E2,8.016347E1,4.4776978E1,2.8495612E2,0E0,0E0,0E0,0E0,0E0,0E0,0E0,0E0],"parents":[2147483647,0,0,1,1,2,2,3,3,4,4,5,5,6,6],"right_children":[2,4,6,8,10,12,14,-1,-1,-1,-1,-1,-1,-1,-1],"split_conditions":[4.1178536E-1,1.5320292E-1,4.7854766E-1,2.8436506E1,3.7685874E-1,4.424571E-1,-1.7334513E-1,-2.4324687E-2,5.8952994E-3,-3.9218792E-1,5.334988E-2,2.345683E-2,5.969716E-2,-4.708775E-1,1.9315269E-2],"split_indices":[1,6,1,5,1,1,7,0,0,0,0,0,0,0,0],"split_type":[0,0,0,0,0,0,0,0,0,0,0,0,0,0,0],"sum_hessian":[1.1022123E4,9.049528E3,1.9725946E3,9.026602E3,2.2926695E1,1.6334276E3,3.3916693E2,1.9632861E3,7.0633154E3,1.8084412E1,4.8422847E0,4.8791678E2,1.1455109E3,1.1302536E1,3.2786438E2],"tree_param":{"num_deleted":"0","num_feature":"11","num_nodes":"15","size_leaf_vector":"1"}},{"base_weights":[4.3661762E-2,-3.4274135E-2,4.0474728E-1,1.0408596E-1,-1.9649963E-1,4.8454553E-1,1.0830591E-2,3.0380702E-2,-9.004074E-3,-9.2475526E-2,5.8971742E-5,4.3545667E-2,9.1778256E-2,-5.2740115E-1,1.0625224E-2],"categories":[],"categories_nodes":[],"categories_segments":[],"categories_sizes":[],"default_left":[0,0,0,0,0,0,0,0,0,0,0,0,0,0,0],"id":29,"left_children":[1,3,5,7,9,11,13,-1,-1,-1,-1,-1,-1,-1,-1],"loss_changes":[3.0567065E2,2.0055333E2,6.0606018E1,1.869985E2,5.903129E2,3.3699646E1,1.648751E2,0E0,0E0,0E0,0E0,0E0,0E0,0E0,0E0],"parents":[2147483647,0,0,1,1,2,2,3,3,4,4,5,5,6,6],"right_children":[2,4,6,8,10,12,14,-1,-1,-1,-1,-1,-1,-1,-1],"split_conditions":[4.1178536E-1,1.5801331E-1,4.7854766E-1,-1.4319053E0,-6.34785E-2,3.0635303E1,2.761031E1,3.0380702E-2,-9.004074E-3,-9.2475526E-2,5.8971742E-5,4.3545667E-2,9.1778256E-2,-5.2740115E-1,1.0625224E-2],"split_indices":[1,1,1,10,6,5,5,0,0,0,0,0,0,0,0],"split_type":[0,0,0,0,0,0,0,0,0,0,0,0,0,0,0],"sum_hessian":[1.0860416E4,8.933199E3,1.9272168E3,4.821425E3,4.1117744E3,1.602382E3,3.2483493E2,2.3761912E3,2.4452334E3,8.7498096E2,3.2367935E3,1.4411001E3,1.6128181E2,4.7985926E0,3.2003635E2],"tree_param":{"num_deleted":"0","num_feature":"11","num_nodes":"15","size_leaf_vector":"1"}},{"base_weights":[5.7086706E-2,2.6191136E-1,-1.5641944E-1,4.617992E-2,4.1307345E-1,-2.8700918E-1,2.517926E-1,4.256244E-2,-6.461276E-3,6.4188145E-2,1.7456954E-2,-4.9583327E-2,1.1794004E-2,-2.0796863E-2,7.572713E-2],"categories":[],"categories_nodes":[],"categories_segments":[],"categories_sizes":[],"default_left":[0,0,0,0,0,0,0,0,0,0,0,0,0,0,0],"id":30,"left_children":[1,3,5,7,9,11,13,-1,-1,-1,-1,-1,-1,-1,-1],"loss_changes":[4.7586118E2,1.810842E2,2.840985E2,9.626534E1,1.7808203E2,3.4144928E2,3.0039026E2,0E0,0E0,0E0,0E0,0E0,0E0,0E0,0E0],"parents":[2147483647,0,0,1,1,2,2,3,3,4,4,5,5,6,6],"right_children":[2,4,6,8,10,12,14,-1,-1,-1,-1,-1,-1,-1,-1],"split_conditions":[3.3043915E1,2.9670675E1,1.2970367E1,3.1340982E1,-3.342916E-1,3.6265534E-1,3.4223457E1,4.256244E-2,-6.461276E-3,6.4188145E-2,1.7456954E-2,-4.9583327E-2,1.1794004E-2,-2.0796863E-2,7.572713E-2],"split_indices":[4,5,2,4,9,9,4,0,0,0,0,0,0,0,0],"split_type":[0,0,0,0,0,0,0,0,0,0,0,0,0,0,0],"sum_hessian":[1.0879535E4,5.5525415E3,5.326993E3,2.2882148E3,3.264327E3,4.0361113E3,1.290882E3,5.1649005E2,1.7717246E3,1.6651647E3,1.5991624E3,2.6627573E3,1.3733541E3,6.763197E2,6.145622E2],"tree_param":{"num_deleted":"0","num_feature":"11","num_nodes":"15","size_leaf_vector":"1"}},{"base_weights":[4.756746E-2,2.9352215E-1,-1.3681798E-1,4.7173008E-1,1.3861033E-1,-2.0995125E-1,4.2890513E-1,4.8160974E-2,-5.7781065E-1,2.7079403E-2,-9.973842E-3,-1.6527092E-2,-8.306157E-2,1.0812431E-2,7.329745E-2],"categories":[],"categories_nodes":[],"categories_segments":[],"categories_sizes":[],"default_left":[0,0,0,0,0,0,0,0,0,0,0,0,0,0,0],"id":31,"left_children":[1,3,5,7,9,11,13,-1,-1,-1,-1,-1,-1,-1,-1],"loss_changes":[4.889724E2,1.27467834E2,2.5505312E2,1.3540686E2,7.793426E1,1.5121388E2,6.876274E1,0E0,0E0,0E0,0E0,0E0,0E0,0E0,0E0],"parents":[2147483647,0,0,1,1,2,2,3,3,4,4,5,5,6,6],"right_children":[2,4,6,8,10,12,14,-1,-1,-1,-1,-1,-1,-1,-1],"split_conditions":[3.276925E1,3.1736961E1,1.391644E-1,4.023348E0,-3.342916E-1,7.202368E-2,6.1521137E-1,4.8160974E-2,-5.7781065E-1,2.7079403E-2,-9.973842E-3,-1.6527092E-2,-8.306157E-2,1.0812431E-2,7.329745E-2],"split_indices":[4,4,7,10,9,6,0,0,0,0,0,0,0,0,0],"split_type":[0,0,0,0,0,0,0,0,0,0,0,0,0,0,0],"sum_hessian":[1.0780197E4,4.6186777E3,6.16152E3,2.1468884E3,2.4717893E3,5.456735E3,7.047849E2,2.1444214E3,2.4669309E0,1.5899159E3,8.8187335E2,5.0914766E3,3.6525848E2,3.4362744E2,3.6115747E2],"tree_param":{"num_deleted":"0","num_feature":"11","num_nodes":"15","size_leaf_vector":"1"}},{"base_weights":[7.114333E-2,1.9206703E-1,-3.991823E-2,-3.7819242E-1,2.6249242E-1,-2.3431194E-1,6.864105E-2,-2.3640884E-2,-2.3196757E-1,1.733663E-2,4.522695E-2,-4.2304333E-2,-6.7430893E-3,3.497084E-2,-5.145497E-3],"categories":[],"categories_nodes":[],"categories_segments":[],"categories_sizes":[],"default_left":[0,0,0,0,0,0,0,0,0,0,0,0,0,0,0],"id":32,"left_children":[1,3,5,7,9,11,13,-1,-1,-1,-1,-1,-1,-1,-1],"loss_changes":[1.4741972E2,2.1114525E2,1.20775475E2,1.5857266E2,7.904538E1,6.4561066E1,1.2398587E2,0E0,0E0,0E0,0E0,0E0,0E0,0E0,0E0],"parents":[2147483647,0,0,1,1,2,2,3,3,4,4,5,5,6,6],"right_children":[2,4,6,8,10,12,14,-1,-1,-1,-1,-1,-1,-1,-1],"split_conditions":[-8.468446E-1,7.934813E0,1.5638852E0,1.2207404E-3,1.5193845E0,4.73797E-1,1.2207404E-3,-2.3640884E-2,-2.3196757E-1,1.733663E-2,4.522695E-2,-4.2304333E-2,-6.7430893E-3,3.497084E-2,-5.145497E-3],"split_indices":[10,2,3,7,0,10,7,0,0,0,0,0,0,0,0],"split_type":[0,0,0,0,0,0,0,0,0,0,0,0,0,0,0],"sum_hessian":[1.0975348E4,5.254033E3,5.721315E3,5.770536E2,4.6769795E3,2.049744E3,3.6715708E3,5.3882574E2,3.822786E1,3.183709E3,1.4932704E3,9.6117914E2,1.0885647E3,1.0985835E3,2.5729873E3],"tree_param":{"num_deleted":"0","num_feature":"11","num_nodes":"15","size_leaf_vector":"1"}},{"base_weights":[4.5612775E-2,3.4321404E-1,-6.474529E-2,2.5887093E-1,7.378389E-1,-5.603931E-1,-1.7073784E-2,4.5294903E-2,8.583663E-3,7.7719025E-2,-2.7876616E-2,-1.6602956E-1,2.2399396E-2,2.1268284E-2,-1.98307E-2],"categories":[],"categories_nodes":[],"categories_segments":[],"categories_sizes":[],"default_left":[0,0,0,0,0,0,0,0,0,0,0,0,0,0,0],"id":33,"left_children":[1,3,5,7,9,11,13,-1,-1,-1,-1,-1,-1,-1,-1],"loss_changes":[3.5205823E2,9.632367E1,1.847662E2,8.024457E1,2.0622498E1,5.9231696E2,2.9714005E2,0E0,0E0,0E0,0E0,0E0,0E0,0E0,0E0],"parents":[2147483647,0,0,1,1,2,2,3,3,4,4,5,5,6,6],"right_children":[2,4,6,8,10,12,14,-1,-1,-1,-1,-1,-1,-1,-1],"split_conditions":[3.225196E1,3.0759819E1,2.7325388E1,3.1222725E1,3.6271005E0,6.103702E-4,-9.604327E-1,4.5294903E-2,8.583663E-3,7.7719025E-2,-2.7876616E-2,-1.6602956E-1,2.2399396E-2,2.1268284E-2,-1.98307E-2],"split_indices":[4,5,5,4,0,7,10,0,0,0,0,0,0,0,0],"split_type":[0,0,0,0,0,0,0,0,0,0,0,0,0,0,0],"sum_hessian":[1.0717852E4,2.8987415E3,7.8191104E3,2.3896567E3,5.0908475E2,6.8511475E2,7.1339956E3,1.1255754E3,1.2640813E3,4.9033987E2,1.8744867E1,2.847329E2,4.0038187E2,3.1457847E3,3.988211E3],"tree_param":{"num_deleted":"0","num_feature":"11","num_nodes":"15","size_leaf_vector":"1"}},{"base_weights":[4.1625373E-2,2.3098616E-1,-1.15359224E-1,4.4276315E-1,1.217548E-1,-8.525252E-2,-1.6323829E0,2.6032531E-3,5.1419415E-2,-4.020959E-2,1.8963618E-2,-1.1908034E-2,5.342088E-2,9.860262E-2,-1.7833535E-1],"categories":[],"categories_nodes":[],"categories_segments":[],"categories_sizes":[],"default_left":[0,0,0,0,0,0,0,0,0,0,0,0,0,0,0],"id":34,"left_children":[1,3,5,7,9,11,13,-1,-1,-1,-1,-1,-1,-1,-1],"loss_changes":[3.1673468E2,1.116622E2,2.6593207E2,4.889264E1,1.13420135E2,1.19786194E2,4.655014E1,0E0,0E0,0E0,0E0,0E0,0E0,0E0,0E0],"parents":[2147483647,0,0,1,1,2,2,3,3,4,4,5,5,6,6],"right_children":[2,4,6,8,10,12,14,-1,-1,-1,-1,-1,-1,-1,-1],"split_conditions":[3.2915737E1,3.1498535E1,3.0927305E1,4.6583605E-1,2.8328104E1,3.4513382E1,1.1801664E-1,2.6032531E-3,5.1419415E-2,-4.020959E-2,1.8963618E-2,-1.1908034E-2,5.342088E-2,9.860262E-2,-1.7833535E-1],"split_indices":[4,4,5,0,5,4,0,0,0,0,0,0,0,0,0],"split_type":[0,0,0,0,0,0,0,0,0,0,0,0,0,0,0],"sum_hessian":[1.0652982E4,4.82836E3,5.8246226E3,1.6419349E3,3.1864248E3,5.712313E3,1.1230981E2,2.4045827E2,1.4014767E3,3.6497034E2,2.8214546E3,5.417291E3,2.9502197E2,5.8209567E0,1.06488846E2],"tree_param":{"num_deleted":"0","num_feature":"11","num_nodes":"15","size_leaf_vector":"1"}},{"base_weights":[4.137462E-2,4.1030595E-1,-3.6310527E-2,-2.4276698E-1,4.4809216E-1,-4.826341E-3,-6.443859E-1,2.3302104E-2,-8.586428E-2,5.8647335E-2,3.1585507E-2,-8.259103E-3,4.1169453E-2,-1.2367219E-1,-9.576528E-3],"categories":[],"categories_nodes":[],"categories_segments":[],"categories_sizes":[],"default_left":[0,0,0,0,0,0,0,0,0,0,0,0,0,0,0],"id":35,"left_children":[1,3,5,7,9,11,13,-1,-1,-1,-1,-1,-1,-1,-1],"loss_changes":[3.0660745E2,4.6028107E1,1.6919048E2,3.02131E1,3.2009796E1,2.7222995E2,1.4125838E2,0E0,0E0,0E0,0E0,0E0,0E0,0E0,0E0],"parents":[2147483647,0,0,1,1,2,2,3,3,4,4,5,5,6,6],"right_children":[2,4,6,8,10,12,14,-1,-1,-1,-1,-1,-1,-1,-1],"split_conditions":[3.1639301E1,3.4833863E-1,8.7588124E-2,-5.032176E-1,3.0823694E1,1.0566497E0,3.601184E-2,2.3302104E-2,-8.586428E-2,5.8647335E-2,3.1585507E-2,-8.259103E-3,4.1169453E-2,-1.2367219E-1,-9.576528E-3],"split_indices":[4,0,6,9,4,9,7,0,0,0,0,0,0,0,0],"split_type":[0,0,0,0,0,0,0,0,0,0,0,0,0,0,0],"sum_hessian":[1.06963955E4,1.8598025E3,8.836593E3,1.0142431E2,1.7583782E3,8.402544E3,4.3404877E2,5.7570503E1,4.385381E1,8.575496E2,9.008286E2,7.081269E3,1.3212753E3,2.0810608E2,2.2594269E2],"tree_param":{"num_deleted":"0","num_feature":"11","num_nodes":"15","size_leaf_vector":"1"}},{"base_weights":[1.2893433E-2,-5.270944E-2,4.2023957E-1,1.6856256E-1,-2.0363434E-1,5.347521E-1,-7.597157E-2,1.741932E-2,-7.6466644E-1,-8.513738E-3,-7.6841354E-2,5.5630084E-2,-2.2932427E-1,-7.2506326E-1,3.4042154E-3],"categories":[],"categories_nodes":[],"categories_segments":[],"categories_sizes":[],"default_left":[0,0,0,0,0,0,0,0,0,0,0,0,0,0,0],"id":36,"left_children":[1,3,5,7,9,11,13,-1,-1,-1,-1,-1,-1,-1,-1],"loss_changes":[2.7795496E2,2.9921466E2,8.202194E1,1.612135E2,3.564039E2,7.271948E1,2.1446451E2,0E0,0E0,0E0,0E0,0E0,0E0,0E0,0E0],"parents":[2147483647,0,0,1,1,2,2,3,3,4,4,5,5,6,6],"right_children":[2,4,6,8,10,12,14,-1,-1,-1,-1,-1,-1,-1,-1],"split_conditions":[4.4047922E-1,3.2719658E1,4.8190114E-1,1.5030367E1,2.9279652E-1,3.4513382E1,3.0672247E1,1.741932E-2,-7.6466644E-1,-8.513738E-3,-7.6841354E-2,5.5630084E-2,-2.2932427E-1,-7.2506326E-1,3.4042154E-3],"split_indices":[1,4,1,2,1,4,4,0,0,0,0,0,0,0,0],"split_type":[0,0,0,0,0,0,0,0,0,0,0,0,0,0,0],"sum_hessian":[1.0399479E4,8.957715E3,1.4417644E3,3.632283E3,5.325431E3,1.1713662E3,2.7039825E2,3.630645E3,1.63806E0,4.4028213E3,9.226101E2,1.1633053E3,8.060865E0,3.1033506E0,2.672949E2],"tree_param":{"num_deleted":"0","num_feature":"11","num_nodes":"15","size_leaf_vector":"1"}},{"base_weights":[3.252737E-2,-2.2927015E-1,1.09996706E-1,3.593927E-3,-2.468717E0,-2.9109092E-2,2.3013699E-1,5.523127E-3,-1.3375531E-1,-2.0505002E-1,-2.5582513E-1,-9.619254E-3,4.5628864E-2,1.9834941E-2,8.7940484E-2],"categories":[],"categories_nodes":[],"categories_segments":[],"categories_sizes":[],"default_left":[0,0,0,0,0,0,0,0,0,0,0,0,0,0,0],"id":37,"left_children":[1,3,5,7,9,11,13,-1,-1,-1,-1,-1,-1,-1,-1],"loss_changes":[2.1654854E2,1.2714573E3,1.3769684E2,1.5308739E2,3.3532715E0,1.243978E2,9.106752E1,0E0,0E0,0E0,0E0,0E0,0E0,0E0,0E0],"parents":[2147483647,0,0,1,1,2,2,3,3,4,4,5,5,6,6],"right_children":[2,4,6,8,10,12,14,-1,-1,-1,-1,-1,-1,-1,-1],"split_conditions":[9.3081455E0,3.3771782E1,7.6663655E-1,8.362072E-2,7.934813E0,1.621296E1,7.6100526E0,5.523127E-3,-1.3375531E-1,-2.0505002E-1,-2.5582513E-1,-9.619254E-3,4.5628864E-2,1.9834941E-2,8.7940484E-2],"split_indices":[2,4,0,6,2,2,0,0,0,0,0,0,0,0,0],"split_type":[0,0,0,0,0,0,0,0,0,0,0,0,0,0,0],"sum_hessian":[1.0675018E4,2.437122E3,8.2378955E3,2.2084768E3,2.2864531E2,3.8179712E3,4.419924E3,2.127521E3,8.095579E1,4.4532784E1,1.8411252E2,3.3550896E3,4.628817E2,4.214873E3,2.0505104E2],"tree_param":{"num_deleted":"0","num_feature":"11","num_nodes":"15","size_leaf_vector":"1"}},{"base_weights":[1.8327639E-2,-4.4719454E-2,3.1859943E-1,7.9644024E-2,-2.1246363E-1,4.1685423E-1,-1.9914046E-1,-7.665896E-2,1.3782248E-2,-9.319913E-2,-7.372246E-4,1.7367143E-2,5.2688252E-2,-7.0636386E-1,-1.0485287E-2],"categories":[],"categories_nodes":[],"categories_segments":[],"categories_sizes":[],"default_left":[0,0,0,0,0,0,0,0,0,0,0,0,0,0,0],"id":38,"left_children":[1,3,5,7,9,11,13,-1,-1,-1,-1,-1,-1,-1,-1],"loss_changes":[1.9771681E2,1.8008789E2,9.2277405E1,2.4418108E2,5.423441E2,4.067502E1,1.8679976E2,0E0,0E0,0E0,0E0,0E0,0E0,0E0,0E0],"parents":[2147483647,0,0,1,1,2,2,3,3,4,4,5,5,6,6],"right_children":[2,4,6,8,10,12,14,-1,-1,-1,-1,-1,-1,-1,-1],"split_conditions":[4.0921998E-1,1.7911825E-1,4.7854766E-1,-2.8077029E-2,1.0528886E1,4.424571E-1,-2.6306954E-1,-7.665896E-2,1.3782248E-2,-9.319913E-2,-7.372246E-4,1.7367143E-2,5.2688252E-2,-7.0636386E-1,-1.0485287E-2],"split_indices":[1,1,1,7,2,1,7,0,0,0,0,0,0,0,0],"split_type":[0,0,0,0,0,0,0,0,0,0,0,0,0,0,0],"sum_hessian":[1.0442178E4,8.63084E3,1.8113381E3,4.9566016E3,3.6742383E3,1.5225829E3,2.8875534E2,3.1806186E2,4.6385396E3,8.142031E2,2.8600352E3,4.7510077E2,1.047482E3,2.9109528E0,2.858444E2],"tree_param":{"num_deleted":"0","num_feature":"11","num_nodes":"15","size_leaf_vector":"1"}},{"base_weights":[1.681626E-2,2.1292587E-1,-1.0541307E-1,1.7552571E-1,7.241924E-1,3.0711085E-1,-1.9930404E-1,6.692501E-2,1.380848E-2,-2.3691909E-1,8.063855E-2,-9.969672E-4,9.659972E-2,-3.5147052E-2,2.1531183E-2],"categories":[],"categories_nodes":[],"categories_segments":[],"categories_sizes":[],"default_left":[0,0,0,0,0,0,0,0,0,0,0,0,0,0,0],"id":39,"left_children":[1,3,5,7,9,11,13,-1,-1,-1,-1,-1,-1,-1,-1],"loss_changes":[2.4836035E2,7.5942505E1,2.4728847E2,6.845876E1,7.077756E1,2.4733302E2,3.2815698E2,0E0,0E0,0E0,0E0,0E0,0E0,0E0,0E0],"parents":[2147483647,0,0,1,1,2,2,3,3,4,4,5,5,6,6],"right_children":[2,4,6,8,10,12,14,-1,-1,-1,-1,-1,-1,-1,-1],"split_conditions":[3.2719658E1,3.1099674E1,-7.61418E-2,2.7129093E1,1.9186565E-1,3.4374523E1,3.8031438E-1,6.692501E-2,1.380848E-2,-2.3691909E-1,8.063855E-2,-9.969672E-4,9.659972E-2,-3.5147052E-2,2.1531183E-2],"split_indices":[4,5,1,5,1,4,1,0,0,0,0,0,0,0,0],"split_type":[0,0,0,0,0,0,0,0,0,0,0,0,0,0,0],"sum_hessian":[1.0359214E4,3.977236E3,6.3819775E3,3.7073774E3,2.6985867E2,1.1828185E3,5.199159E3,2.6013705E2,3.4472405E3,6.264537E0,2.6359412E2,7.9919916E2,3.8361935E2,3.8034302E3,1.3957291E3],"tree_param":{"num_deleted":"0","num_feature":"11","num_nodes":"15","size_leaf_vector":"1"}},{"base_weights":[4.4035997E-2,1.8431233E-1,-9.05413E-2,-1.1275744E0,2.0714888E-1,2.7862385E-1,-1.6342081E-1,-1.6538827E-2,-5.204034E-1,4.748329E-2,8.561148E-3,-2.8620398E-2,8.467441E-2,-8.1073724E-2,-1.8986837E-4],"categories":[],"categories_nodes":[],"categories_segments":[],"categories_sizes":[],"default_left":[0,0,0,0,0,0,0,0,0,0,0,0,0,0,0],"id":40,"left_children":[1,3,5,7,9,11,13,-1,-1,-1,-1,-1,-1,-1,-1],"loss_changes":[1.9875754E2,1.5467227E2,1.4462086E2,3.4569598E2,1.6482832E2,2.846524E2,4.692787E2,0E0,0E0,0E0,0E0,0E0,0E0,0E0,0E0],"parents":[2147483647,0,0,1,1,2,2,3,3,4,4,5,5,6,6],"right_children":[2,4,6,8,10,12,14,-1,-1,-1,-1,-1,-1,-1,-1],"split_conditions":[3.305612E1,-1.1056097E-1,-8.38045E-2,-1.5550932E-1,1.1853212E-1,3.4223457E1,4.362925E-2,-1.6538827E-2,-5.204034E-1,4.748329E-2,8.561148E-3,-2.8620398E-2,8.467441E-2,-8.1073724E-2,-1.8986837E-4],"split_indices":[4,1,1,1,1,4,1,0,0,0,0,0,0,0,0],"split_type":[0,0,0,0,0,0,0,0,0,0,0,0,0,0,0],"sum_hessian":[1.0526639E4,5.1540044E3,5.372634E3,8.735518E1,5.0666494E3,8.85316E2,4.487318E3,7.151559E1,1.5839595E1,1.5811929E3,3.4854565E3,4.4419324E2,4.4112274E2,8.952986E2,3.5920193E3],"tree_param":{"num_deleted":"0","num_feature":"11","num_nodes":"15","size_leaf_vector":"1"}},{"base_weights":[1.8758258E-2,3.0258834E-1,-3.669041E-2,9.217697E-1,2.4639131E-1,-7.239587E-1,2.3570552E-2,9.782552E-2,-2.3406941E-2,-8.918592E-3,3.742362E-2,-1.7968768E-1,2.0319348E-2,1.5214278E-2,-1.4282869E-2],"categories":[],"categories_nodes":[],"categories_segments":[],"categories_sizes":[],"default_left":[0,0,0,0,0,0,0,0,0,0,0,0,0,0,0],"id":41,"left_children":[1,3,5,7,9,11,13,-1,-1,-1,-1,-1,-1,-1,-1],"loss_changes":[1.6316205E2,5.872963E1,3.592274E2,9.409721E0,6.6734E1,6.959203E2,1.7064403E2,0E0,0E0,0E0,0E0,0E0,0E0,0E0,0E0],"parents":[2147483647,0,0,1,1,2,2,3,3,4,4,5,5,6,6],"right_children":[2,4,6,8,10,12,14,-1,-1,-1,-1,-1,-1,-1,-1],"split_conditions":[3.1706442E1,2.7636677E1,7.934813E0,4.3031096E-2,2.9670675E1,4.3822536E-1,-5.3169954E-1,9.782552E-2,-2.3406941E-2,-8.918592E-3,3.742362E-2,-1.7968768E-1,2.0319348E-2,1.5214278E-2,-1.4282869E-2],"split_indices":[4,5,2,6,5,10,10,0,0,0,0,0,0,0,0],"split_type":[0,0,0,0,0,0,0,0,0,0,0,0,0,0,0],"sum_hessian":[1.0365688E4,1.6933463E3,8.672342E3,1.3961876E2,1.5537275E3,6.9822015E2,7.9741216E3,1.3326003E2,6.3587317E0,4.2871225E2,1.1250154E3,3.2323193E2,3.7498822E2,4.498408E3,3.4757134E3],"tree_param":{"num_deleted":"0","num_feature":"11","num_nodes":"15","size_leaf_vector":"1"}},{"base_weights":[1.8527484E-2,-3.71577E-2,3.7334725E-1,7.7270016E-2,-1.8043636E-1,4.9892822E-1,-5.3071734E-2,-4.0734243E-2,1.7977903E-2,-9.1644704E-2,-7.129505E-3,-4.112204E-3,5.684185E-2,-7.0874676E-2,1.8399477E-2],"categories":[],"categories_nodes":[],"categories_segments":[],"categories_sizes":[],"default_left":[0,0,0,0,0,0,0,0,0,0,0,0,0,0,0],"id":42,"left_children":[1,3,5,7,9,11,13,-1,-1,-1,-1,-1,-1,-1,-1],"loss_changes":[2.0197874E2,1.4488286E2,7.4283646E1,2.441561E2,3.1512653E2,4.022766E1,4.930763E1,0E0,0E0,0E0,0E0,0E0,0E0,0E0,0E0],"parents":[2147483647,0,0,1,1,2,2,3,3,4,4,5,5,6,6],"right_children":[2,4,6,8,10,12,14,-1,-1,-1,-1,-1,-1,-1,-1],"split_conditions":[4.3760768E-1,1.8260823E-1,4.7854766E-1,5.896645E-1,-7.6906644E-2,1.1801664E-1,-1.6849077E0,-4.0734243E-2,1.7977903E-2,-9.1644704E-2,-7.129505E-3,-4.112204E-3,5.684185E-2,-7.0874676E-2,1.8399477E-2],"split_indices":[1,1,1,0,6,0,9,0,0,0,0,0,0,0,0],"split_type":[0,0,0,0,0,0,0,0,0,0,0,0,0,0,0],"sum_hessian":[1.0220823E4,8.835138E3,1.3856854E3,4.9123843E3,3.9227537E3,1.0703082E3,3.1537723E2,8.5716296E2,4.0552212E3,5.056217E2,3.4171318E3,1.2206633E2,9.482419E2,8.321972E1,2.3215752E2],"tree_param":{"num_deleted":"0","num_feature":"11","num_nodes":"15","size_leaf_vector":"1"}},{"base_weights":[6.3478197E-3,1.1924855E-1,-1.5347554E-1,-2.2937251E-2,2.6295292E-1,-6.541712E-1,-2.9257236E-3,-1.7823231E-1,1.2491889E-3,5.9973706E-2,1.1267718E-2,-1.3556442E-1,-2.1018403E-2,-3.3679292E-1,1.6595187E-3],"categories":[],"categories_nodes":[],"categories_segments":[],"categories_sizes":[],"default_left":[0,0,0,0,0,0,0,0,0,0,0,0,0,0,0],"id":43,"left_children":[1,3,5,7,9,11,13,-1,-1,-1,-1,-1,-1,-1,-1],"loss_changes":[1.83564E2,1.21818375E2,3.1745126E2,1.8687128E2,1.4999564E2,3.029229E2,2.1280855E2,0E0,0E0,0E0,0E0,0E0,0E0,0E0,0E0],"parents":[2147483647,0,0,1,1,2,2,3,3,4,4,5,5,6,6],"right_children":[2,4,6,8,10,12,14,-1,-1,-1,-1,-1,-1,-1,-1],"split_conditions":[3.3343E1,2.9815699E1,3.3729057E1,-1.1056097E-1,1.1853212E-1,2.9309946E1,-1.7524305E-1,-1.7823231E-1,1.2491889E-3,5.9973706E-2,1.1267718E-2,-1.3556442E-1,-2.1018403E-2,-3.3679292E-1,1.6595187E-3],"split_indices":[4,5,4,1,1,5,1,0,0,0,0,0,0,0,0],"split_type":[0,0,0,0,0,0,0,0,0,0,0,0,0,0,0],"sum_hessian":[1.0171021E4,5.96063E3,4.2103916E3,2.996568E3,2.9640615E3,9.725518E2,3.2378396E3,5.8178104E1,2.93839E3,9.1359845E2,2.0504631E3,3.7617105E2,5.9638074E2,1.768555E1,3.220154E3],"tree_param":{"num_deleted":"0","num_feature":"11","num_nodes":"15","size_leaf_vector":"1"}},{"base_weights":[1.4714562E-2,2.2505312E-1,-5.7804342E-2,9.192812E-1,1.7073536E-1,-1.1356091E-1,2.868695E-1,9.90115E-2,-4.0251023E-1,-1.0273478E-2,3.2689E-2,5.097872E-3,-3.4286954E-2,3.010176E-2,-4.39303E-1],"categories":[],"categories_nodes":[],"categories_segments":[],"categories_sizes":[],"default_left":[0,0,0,0,0,0,0,0,0,0,0,0,0,0,0],"id":44,"left_children":[1,3,5,7,9,11,13,-1,-1,-1,-1,-1,-1,-1,-1],"loss_changes":[1.560424E2,9.874336E1,1.4622919E2,7.055997E1,1.0395895E2,2.4710605E2,7.1476456E1,0E0,0E0,0E0,0E0,0E0,0E0,0E0,0E0],"parents":[2147483647,0,0,1,1,2,2,3,3,4,4,5,5,6,6],"right_children":[2,4,6,8,10,12,14,-1,-1,-1,-1,-1,-1,-1,-1],"split_conditions":[3.2287437E1,2.7129093E1,4.4047922E-1,2.4968427E-1,2.969338E1,1.6230547E-1,3.460036E1,9.90115E-2,-4.0251023E-1,-1.0273478E-2,3.2689E-2,5.097872E-3,-3.4286954E-2,3.010176E-2,-4.39303E-1],"split_indices":[4,5,1,1,5,1,4,0,0,0,0,0,0,0,0],"split_type":[0,0,0,0,0,0,0,0,0,0,0,0,0,0,0],"sum_hessian":[1.0228073E4,2.621731E3,7.606343E3,1.8908873E2,2.4326423E3,6.547801E3,1.0585421E3,1.8720653E2,1.8821911E0,8.843108E2,1.5483315E3,3.8127515E3,2.735049E3,1.0562844E3,2.2576413E0],"tree_param":{"num_deleted":"0","num_feature":"11","num_nodes":"15","size_leaf_vector":"1"}},{"base_weights":[1.326453E-2,-6.1781206E-3,7.2054356E-1,-2.794805E-1,2.6170151E-2,4.0992785E-1,1.0523376E0,-5.0591785E-2,2.4344554E-2,1.4315872E-2,-9.002446E-3,-1.7957243E-1,7.413327E-2,-9.8232105E-2,1.0757581E-1],"categories":[],"categories_nodes":[],"categories_segments":[],"categories_sizes":[],"default_left":[0,0,0,0,0,0,0,0,0,0,0,0,0,0,0],"id":45,"left_children":[1,3,5,7,9,11,13,-1,-1,-1,-1,-1,-1,-1,-1],"loss_changes":[1.3924553E2,8.714015E1,2.7488556E1,1.2364315E2,1.19819275E2,1.0480476E2,7.26828E0,0E0,0E0,0E0,0E0,0E0,0E0,0E0,0E0],"parents":[2147483647,0,0,1,1,2,2,3,3,4,4,5,5,6,6],"right_children":[2,4,6,8,10,12,14,-1,-1,-1,-1,-1,-1,-1,-1],"split_conditions":[8.5307E0,7.934813E0,1.1342713E1,7.5852925E-1,-6.6947174E-1,-1.8237906E0,1.5256042E0,-5.0591785E-2,2.4344554E-2,1.4315872E-2,-9.002446E-3,-1.7957243E-1,7.413327E-2,-9.8232105E-2,1.0757581E-1],"split_indices":[0,2,2,9,10,9,8,0,0,0,0,0,0,0,0],"split_type":[0,0,0,0,0,0,0,0,0,0,0,0,0,0,0],"sum_hessian":[1.0124606E4,9.854698E3,2.699081E2,1.042155E3,8.812544E3,1.405577E2,1.2935043E2,7.272666E2,3.1488837E2,4.3911533E3,4.42139E3,1.7783274E1,1.22774414E2,1.0060588E0,1.2834438E2],"tree_param":{"num_deleted":"0","num_feature":"11","num_nodes":"15","size_leaf_vector":"1"}},{"base_weights":[4.7365703E-2,2.7639536E-2,6.626305E-1,-4.0755823E-2,2.4375762E-1,7.9221874E-1,-3.5617611E0,3.8400681E-3,-2.9841555E-2,2.5985118E-3,3.6286723E-2,-2.3441003E-1,8.357605E-2,-4.813687E-1,-1.02996245E-1],"categories":[],"categories_nodes":[],"categories_segments":[],"categories_sizes":[],"default_left":[0,0,0,0,0,0,0,0,0,0,0,0,0,0,0],"id":46,"left_children":[1,3,5,7,9,11,13,-1,-1,-1,-1,-1,-1,-1,-1],"loss_changes":[1.2605905E2,1.4880537E2,1.7945758E2,1.5598178E2,6.276335E1,4.482248E1,2.6058205E1,0E0,0E0,0E0,0E0,0E0,0E0,0E0,0E0],"parents":[2147483647,0,0,1,1,2,2,3,3,4,4,5,5,6,6],"right_children":[2,4,6,8,10,12,14,-1,-1,-1,-1,-1,-1,-1,-1],"split_conditions":[7.6100526E0,3.6474487E-1,3.177902E-1,2.5605658E-1,1.1910526E-1,-1.8171372E-2,4.1687387E-1,3.8400681E-3,-2.9841555E-2,2.5985118E-3,3.6286723E-2,-2.3441003E-1,8.357605E-2,-4.813687E-1,-1.02996245E-1],"split_indices":[0,1,1,1,3,1,1,0,0,0,0,0,0,0,0],"split_type":[0,0,0,0,0,0,0,0,0,0,0,0,0,0,0],"sum_hessian":[1.038701E4,1.0065347E4,3.2166284E2,7.646313E3,2.4190337E3,3.128774E2,8.785426E0,5.849974E3,1.796339E3,8.557155E2,1.5633181E3,3.5607471E0,3.0931668E2,5.275501E0,3.5099254E0],"tree_param":{"num_deleted":"0","num_feature":"11","num_nodes":"15","size_leaf_vector":"1"}},{"base_weights":[6.8359124E-3,-1.24056384E-1,1.4730534E-1,6.0643543E-2,-2.4341832E-1,2.6759994E-1,-2.3286868E-2,-3.015783E-1,6.754983E-3,-8.01162E-2,-3.9525344E-3,2.9447777E-2,-8.95999E-2,-2.9259844E-2,2.2347571E-2],"categories":[],"categories_nodes":[],"categories_segments":[],"categories_sizes":[],"default_left":[0,0,0,0,0,0,0,0,0,0,0,0,0,0,0],"id":47,"left_children":[1,3,5,7,9,11,13,-1,-1,-1,-1,-1,-1,-1,-1],"loss_changes":[1.8522379E2,1.1498065E2,9.972336E1,4.3714973E1,3.6021954E2,8.939079E1,1.336694E2,0E0,0E0,0E0,0E0,0E0,0E0,0E0,0E0],"parents":[2147483647,0,0,1,1,2,2,3,3,4,4,5,5,6,6],"right_children":[2,4,6,8,10,12,14,-1,-1,-1,-1,-1,-1,-1,-1],"split_conditions":[3.250197E0,3.300653E1,1.678518E-2,-4.680304E0,3.3672596E1,3.415784E1,2.3401089E0,-3.015783E-1,6.754983E-3,-8.01162E-2,-3.9525344E-3,2.9447777E-2,-8.95999E-2,-2.9259844E-2,2.2347571E-2],"split_indices":[3,4,7,9,4,4,8,0,0,0,0,0,0,0,0],"split_type":[0,0,0,0,0,0,0,0,0,0,0,0,0,0,0],"sum_hessian":[1.007198E4,5.213785E3,4.8581953E3,2.0469065E3,3.1668787E3,2.8487825E3,2.0094126E3,3.60897E0,2.0432976E3,8.470011E2,2.3198774E3,2.7851946E3,6.3587917E1,9.607185E2,1.048694E3],"tree_param":{"num_deleted":"0","num_feature":"11","num_nodes":"15","size_leaf_vector":"1"}},{"base_weights":[4.325367E-3,1.8423681E-1,-1.0509926E-1,3.177734E-1,1.4641237E-3,-1.9264716E-1,1.66121E-1,1.7641589E-2,4.4981588E-2,-5.8877416E-2,8.481766E-3,-4.1301284E-2,1.078545E-2,-6.163152E-2,3.7387792E-2],"categories":[],"categories_nodes":[],"categories_segments":[],"categories_sizes":[],"default_left":[0,0,0,0,0,0,0,0,0,0,0,0,0,0,0],"id":48,"left_children":[1,3,5,7,9,11,13,-1,-1,-1,-1,-1,-1,-1,-1],"loss_changes":[1.977577E2,9.272151E1,1.4834714E2,4.0894043E1,7.9005516E1,3.127671E2,2.4809062E2,0E0,0E0,0E0,0E0,0E0,0E0,0E0,0E0],"parents":[2147483647,0,0,1,1,2,2,3,3,4,4,5,5,6,6],"right_children":[2,4,6,8,10,12,14,-1,-1,-1,-1,-1,-1,-1,-1],"split_conditions":[3.2705162E1,-3.7480125E-1,7.2495127E-1,2.6281369E0,7.934813E0,1.1444442E1,3.3231606E1,1.7641589E-2,4.4981588E-2,-5.8877416E-2,8.481766E-3,-4.1301284E-2,1.078545E-2,-6.163152E-2,3.7387792E-2],"split_indices":[4,9,9,3,2,2,4,0,0,0,0,0,0,0,0],"split_type":[0,0,0,0,0,0,0,0,0,0,0,0,0,0,0],"sum_hessian":[1.0043239E4,3.7980156E3,6.2452236E3,2.1941768E3,1.6038387E3,4.7214604E3,1.5237631E3,1.0608375E3,1.1333394E3,1.9771649E2,1.4061223E3,2.723715E3,1.9977455E3,3.1929504E2,1.204468E3],"tree_param":{"num_deleted":"0","num_feature":"11","num_nodes":"15","size_leaf_vector":"1"}},{"base_weights":[-5.7239947E-3,-5.8235224E-2,2.6721117E-1,-3.050513E-1,6.884818E-2,2.9137066E-1,-1.8062415E0,-6.689897E-2,-1.57009E-3,1.4915972E-2,-3.2397684E-2,1.9183435E-2,6.605535E-2,-1.1114394E-1,-5.1850104E-1],"categories":[],"categories_nodes":[],"categories_segments":[],"categories_sizes":[],"default_left":[0,0,0,0,0,0,0,0,0,0,0,0,0,0,0],"id":49,"left_children":[1,3,5,7,9,11,13,-1,-1,-1,-1,-1,-1,-1,-1],"loss_changes":[1.4270155E2,2.6193262E2,8.100346E1,2.9887616E2,1.7396944E2,5.8260544E1,3.800159E1,0E0,0E0,0E0,0E0,0E0,0E0,0E0,0E0],"parents":[2147483647,0,0,1,1,2,2,3,3,4,4,5,5,6,6],"right_children":[2,4,6,8,10,12,14,-1,-1,-1,-1,-1,-1,-1,-1],"split_conditions":[4.1178536E-1,7.553683E-1,5.266959E-1,2.979104E1,2.9483962E-1,3.0200232E1,3.2044437E-2,-6.689897E-2,-1.57009E-3,1.4915972E-2,-3.2397684E-2,1.9183435E-2,6.605535E-2,-1.1114394E-1,-5.1850104E-1],"split_indices":[1,0,1,5,1,5,6,0,0,0,0,0,0,0,0],"split_type":[0,0,0,0,0,0,0,0,0,0,0,0,0,0,0],"sum_hessian":[9.954652E3,8.349114E3,1.6055374E3,2.8372756E3,5.511839E3,1.5878949E3,1.7642385E1,1.2560864E3,1.5811892E3,4.576759E3,9.3508014E2,1.2518895E3,3.360054E2,1.57355175E1,1.9068674E0],"tree_param":{"num_deleted":"0","num_feature":"11","num_nodes":"15","size_leaf_vector":"1"}}]},"name":"gbtree"},"learner_model_param":{"base_score":"[8.3799297E-1]","boost_from_average":"1","num_class":"0","num_feature":"11","num_target":"1"},"objective":{"name":"binary:logistic","reg_loss_param":{"scale_pos_weight":"50"}}},"version":[3,2,0]}